26 112 125 126 84 62 65 62 93 117 48 -58 -12 70 98 -91 -1 -3 127 103 -96 -100 4 36 41 -25 -46 -38 56 46 10 -41 -67 67 98 -58 -43 -80 15 127 13 -103 -19 36 84 -64 -50 4 69 90 1 26 60 38 -35 29 5 10 2 44 6 42 101 101 11 95 127 105 -2 5 115 72 6 -6 -64 58 -28 4 18 -60 88 28 -29 -26 -12 9 104 -1 -14 -60 127 102 -70 -37 -70 79 8 47 -38 -4 -4 -86 -22 -92 -49 72 -88 85 67 -10 -32 -88 -106 -27 -64 127 -83 102 97 62 9 -76 9 11 -111 -14 -17 -9 15 17 13 17 4 56 56 -12 30 72 89 67 16 18 92 127 92 7 21 80 91 6621 14 -24 -75 0 -12 43 29 -76 -13 -44 112 61 -28 -49 -6 68 42 -46 -47 -58 60 57 -13 -18 -19 -3 -20 -18 10 -4 58 13 -32 -6 13 99 -2 11 27 28 79 -15 -26 35 -24 55 14 -40 -9 6 -46 -5 -20 -4 -61 12 37 30 -54 -24 -46 8 5 -24 -76 -39 48 -20 0 -1 -58 33 -36 -20 -33 -5 12 39 7 19 -23 31 30 -13 18 -17 14 79 20 -23 6 48 57 2 -40 26 -11 15 11 -6 -32 -31 -29 5 17 -29 -6 14 17 20 16 12 0 2 -27 -27 25 -6 36 33 32 14 20 39 -1 16 4 -69 -2 -57 79 91 -100 -52 -123 91 110 -128 -44 -114 92 102 -56 -13 -62 15 19 4 49 62 -19 -33 -36 50 23 27 -13 -14 -9 -44 -27 23 107 -12 -54 -65 54 103 68 -37 16 3 -32 -12 37 -22 -12 0 -4 69 68 62 11 53 -35 -3 61 53 16 7 -7 -19 78 -18 -49 -62 17 2 15 -84 -63 26 55 5 -13 -62 -60 -16 33 -28 -54 27 -44 4 43 51 0 42 -31 30 23 5 -24 3 -38 -33 61 44 -18 -66 -6 -26 -8 75 27 6 -57 -53 31 11 48 8 -64 -28 -61 -17 47 -32 43 -11 -14 -42 -25 19 -34 23 -35 -43 -16 57 -32 42 -42 57 8 -10 26 26 -5 11 1 -32 51 -61 13 66 77 -31 -128 -96 57 25 47 -41 -18 -36 15 75 -21 40 -26 30 93 -58 40 45 -18 44 46 45 -41 -33 19 -44 -64 6 61 14 -59 -10 -52 -8 28 -27 91 45 -19 -68 -9 -28 24 -79 -46 -56 55 36 -43 -3 -3 -42 53 -33 -2 -59 1 66 18 23 -45 17 62 -23 -39 12 18 -20 -26 -67 50 -28 -11 -20 4 38 49 36 -13 -60 42 -1 51 -55 -16 -18 -6 -52 70 -67 -37 -28 1 -29 -10 -14 27 -59 24 18 34 31 -47 -37 -48 18 69 46 43 -71 -67 2 -22 59 -24 56 24 59 -14 -52 -67 38 -8 12 55 41 70 -46 -58 -66 -42 57 35 65 70 21 19 -19 -42 51 -60 48 -55 37 53 53 -73 -33 1 -64 -55 22 -77 -96 -37 31 -13 -56 -12 22 -59 127 -14 -56 -73 -72 121 55 -57 -43 -7 -22 -22 -48 -18 -35 12 70 -24 -44 -32 77 99 76 -58 13 28 45 85 43 -34 -19 26 93 77 -2 43 -2 17 22 26 -7 45 2 2 33 20 70 56 11 28 29 67 32 15 -38 15 45 -13 -25 -4 -24 31 -6 34 10 -38 19 3 19 25 -55 -9 34 13 -18 4 -7 19 38 25 -36 -57 -15 32 28 9 -3 15 -14 -26 10 17 40 41 22 -45 39 3 41 38 -40 31 16 8 43 -38 -9 -35 34 43 -6 21 -24 -20 17 -18 23 30 36 18 16 29 36 -27 23 11 -1 -6 -7 22 -22 2 21 -5 -22 52 32 -19 -54 8 -8 76 36 -44 -72 8 112 70 -45 -47 15 64 77 82 -8 -128 -36 48 37 25 -31 -32 -12 5 20 21 -55 39 -34 2 -19 16 3 -5 48 5 31 26 -19 -38 50 37 14 -40 -37 -50 -21 33 59 39 -5 11 55 28 -18 -48 45 35 -21 30 -32 32 -28 3 -25 -7 12 12 19 -11 29 -7 -42 -54 15 10 -7 -34 71 76 -22 -42 66 82 -5 22 25 17 -10 16 -40 -21 -21 4 -18 -2 -31 12 29 -30 39 3 -12 30 -4 -16 -30 -15 35 -32 24 -7 39 32 28 2 -26 20 -10 12 -33 -6 -31 21 0 -21 24 -30 32 1 -34 22 -28 23 23 -37 0 -8 40 -28 32 -23 -2 33 14 4 -125 -128 51 56 -123 -77 97 125 81 -16 65 104 75 -70 57 89 54 -82 -70 -4 27 -15 -33 -39 -17 -2 -18 0 -7 24 7 -27 -4 4 19 31 -25 -32 9 12 31 -17 -17 -16 47 40 -35 -12 -39 35 53 -8 -14 -1 25 65 21 -32 -28 29 39 -20 -10 27 14 6 -3 6 27 16 5 -28 -25 22 -3 8 9 44 30 -54 26 40 1 -43 0 64 40 8 -28 7 1 21 -18 -1 -21 11 -25 3 -20 -13 15 27 29 9 5 8 5 23 16 -33 -7 22 16 -16 31 37 22 -18 -5 25 13 -18 25 -14 0 26 26 16 -4 8 -5 23 -17 -24 4 -14 23 18 15 14 24 -19 11 16 12 -7 16 14 12 -48 70 85 24 -25 41 110 24 -62 -50 123 97 -84 -96 -57 127 4 -49 -61 -52 56 9 -26 -6 -6 -19 -32 -43 -9 14 -17 -3 -26 -64 -50 25 18 48 14 27 31 48 82 81 65 -11 -35 -18 2 14 -4 -33 -6 -31 -1 17 -25 -16 -31 -24 -5 -23 -18 -33 -32 -28 -29 -2 8 -4 -37 -32 -17 9 -13 -19 -18 -34 -9 -15 -19 22 23 5 27 2 14 8 56 6 15 -3 4 9 5 -3 4 -31 -18 18 8 6 16 8 -18 -2 9 22 -19 -8 17 8 3 11 16 -4 0 3 -22 -4 7 -21 -18 -25 2 7 23 -18 6 -16 -6 12 25 9 -15 23 13 -7 24 0 7 -23 24 2 -8 -2 -16 9 -17 1 0 -33 -120 -106 -120 27 65 69 52 21 35 112 126 127 91 -46 -61 -58 -26 8 -28 -65 -103 -58 7 -11 -41 -50 -37 -33 -27 -6 -56 -30 -20 -11 52 47 -5 3 37 11 88 78 34 4 -4 62 64 54 -19 -39 -18 -17 -10 21 15 9 -29 -9 -22 -11 -28 7 -51 -14 -20 31 21 -11 -46 12 20 41 -36 -30 13 -21 -44 -21 -30 -33 27 -17 3 50 4 29 36 31 19 16 13 27 -10 7 -41 -38 7 29 -19 -39 7 15 -33 33 -9 -23 -11 22 0 4 4 27 -21 5 27 -28 12 12 17 -9 13 20 12 -30 -23 23 -31 -36 -24 -18 2 -11 28 -9 -5 38 -7 -4 16 -11 12 -1 -27 -5 20 -8 16 2 -70 -61 -76 -66 -50 21 58 43 -18 -53 120 81 81 62 -45 19 18 46 72 31 -82 -128 -65 -29 9 -28 -28 4 -18 36 -23 -33 6 37 58 -25 -41 -59 38 38 15 -38 17 14 4 5 -14 -21 -2 -31 31 -24 1 18 33 -23 -24 -22 39 67 23 -14 -25 81 29 -26 -35 35 70 -14 -25 -15 11 55 28 -6 -12 32 19 -32 30 -26 -30 -29 4 7 21 -38 -21 27 -15 -18 -1 -12 47 -26 -35 8 32 -11 2 23 -11 22 -13 33 -26 27 20 35 -7 29 -26 2 23 20 -8 0 3 29 -6 -23 -35 3 40 -14 29 10 -22 31 -33 -5 -14 28 -31 25 -14 2 7 -12 -17 -21 -25 -30 3 -5 -18 20 -2 20 5 14 -5 -42 90 -12 -59 -127 26 92 14 -92 -82 85 93 -8 -45 -13 122 46 -11 14 52 78 -21 -10 24 41 51 -13 -63 77 -21 5 7 -86 -6 3 5 10 -69 -30 34 -55 -30 33 -58 -53 33 -36 -42 -8 52 -19 73 -19 -51 -33 -70 47 -11 -37 -29 -53 -77 56 29 -46 -53 60 6 -31 -4 -18 -44 -80 4 -31 4 4 4 60 62 -28 -14 14 13 -2 63 -55 -81 53 14 0 -24 -6 36 73 47 50 65 -72 -73 65 16 -6 21 -34 -62 -58 74 -54 -35 39 33 -61 -75 -58 3 52 11 -75 -58 -35 -36 29 56 5 36 73 -2 -48 50 65 -28 49 -39 32 48 -48 -32 10 -39 9 1 -69 1 -42 43 -13 5 30 33 38 16 -87 52 -30 127 76 -124 -40 127 -8 -71 -82 69 116 -27 -78 70 45 57 -96 -32 -1 -14 -20 -4 0 -3 -24 -57 -44 -5 42 1 21 15 24 46 42 57 39 7 -15 -2 6 40 36 -1 -7 -40 10 25 -40 -24 3 27 28 2 25 -3 26 -10 4 24 -1 -16 -27 -2 -22 -26 -3 10 -19 -28 0 -53 -54 26 17 -13 -32 -9 36 32 40 46 19 26 31 -19 11 -13 -20 10 -32 -12 -17 -8 17 -20 0 -8 -8 -10 -15 -30 -5 -6 -17 -16 19 19 -31 17 -11 -14 15 16 -28 -14 -11 -6 -3 19 15 23 -18 -1 20 14 21 -23 6 1 11 -7 10 -7 28 12 18 8 -20 -11 -19 -21 14 -44 -30 -123 -128 -45 0 -12 -58 26 56 48 44 103 110 63 -3 58 79 69 -16 -10 -61 -47 7 -16 25 -5 54 -21 -9 -22 -73 -15 -29 73 32 60 -53 41 -55 77 -70 -108 -10 -17 95 81 -73 20 -60 39 74 -57 4 2 39 -64 -40 77 57 -30 -72 -81 49 70 -63 -1 -76 77 88 51 -35 -9 -42 68 70 -52 29 52 48 63 107 -54 -86 18 -47 -23 -38 -82 -15 -25 9 -21 -42 -26 -37 -2 -29 -12 73 -51 71 -62 53 19 25 74 18 44 55 3 73 -12 -47 0 44 -7 -28 18 -15 -24 1 -40 -77 -54 -19 77 32 -18 13 -2 39 0 -9 74 -24 75 -76 -32 49 43 60 65 36 -64 -21 -39 33 67 27 93 -27 -66 1 -41 80 47 -70 58 62 127 -13 -97 17 -34 57 14 -118 41 72 6 50 29 -12 -12 48 16 -45 -14 -30 28 95 -11 17 52 78 100 -40 0 10 52 1 27 -84 -21 -20 44 -38 -60 -22 48 3 52 31 -11 -29 18 52 -49 12 50 7 1 29 -16 18 52 12 -15 42 59 33 -22 -4 35 19 6 -40 32 51 -4 -12 -8 2 -18 -82 -1 45 47 -49 -63 -24 48 -26 -58 -21 -1 -27 -18 56 -37 -37 -25 13 12 -9 15 -5 7 -34 3 -18 16 6 -57 11 26 35 25 6 0 5 27 0 40 44 34 33 42 -13 9 27 8 20 -30 -35 6 21 42 -39 36 32 25 21 9 -31 -51 -47 10 51 40 63 88 90 69 -6 48 65 57 8 -5 127 37 -76 -84 -9 54 -113 -101 -9 7 6 4 0 10 28 1 -42 -33 20 39 -29 -10 12 2 -18 -28 -11 29 -22 -43 57 -35 -76 -24 59 93 5 -42 -1 45 6 40 -14 45 38 -52 -35 -52 24 -55 21 21 45 16 7 30 14 -51 -57 74 34 -38 21 -8 -13 52 -23 65 20 35 -32 0 -27 0 20 36 -53 -20 -5 -52 -39 50 -35 -40 44 75 18 -24 14 -26 44 -47 55 46 -36 -19 -15 21 -16 -41 13 29 -55 -45 50 18 36 0 -41 -15 -12 22 23 -54 -43 -9 41 48 38 2 -43 -52 -30 5 49 -21 -38 -50 20 34 18 -33 33 35 4 43 22 -33 40 43 27 91 108 102 -71 -10 -92 -74 -41 -25 -83 -27 -115 -44 -33 120 0 19 -65 -6 127 104 -42 -66 11 -29 -30 -15 5 -19 18 -8 5 16 40 27 30 15 39 23 39 35 -9 20 -9 -70 -32 -58 -49 23 -11 -16 -23 -27 22 20 18 -22 -24 -8 -2 -14 -12 -5 -30 -7 -34 -36 -16 -28 -10 -26 20 -9 -27 -9 -2 19 18 -19 -1 45 45 9 26 12 24 -6 -6 -32 -40 -38 -14 -18 -16 -23 -39 -13 13 -4 -16 22 -19 13 1 7 -21 25 18 -20 -16 5 -10 18 -17 -19 -42 -31 -18 -22 6 -6 -2 -27 7 9 -6 27 18 3 -22 6 -4 -13 -19 -19 13 -5 0 8 23 16 -2 -13 -7 26 24 23 -19 -22 -22 -32 8 33 68 96 122 72 44 46 61 65 47 -10 -73 -128 -118 -102 -17 -24 -53 -19 27 18 18 3 -30 -29 12 22 -14 19 31 -13 14 49 48 46 12 -29 -23 37 10 23 -49 -32 12 8 -14 -9 19 25 21 13 -24 17 15 -14 5 -25 39 26 26 -1 15 -20 -3 25 -31 -15 -38 -12 -22 20 -9 18 8 -4 13 2 -18 -25 44 30 -19 -10 -11 -13 9 -59 -43 7 -14 -21 -13 -13 9 -28 -2 24 -9 33 7 32 11 22 -5 5 26 -16 10 -12 29 6 -15 -10 -16 27 34 -28 -16 -31 -27 -22 9 13 -9 -20 -17 17 1 -15 29 12 -2 -5 13 -16 8 3 18 -18 10 -13 -2 0 10 -30 15 30 8 -7 12 22 -10 39 94 68 35 -100 -35 82 78 -33 -128 -78 32 21 -27 5 -48 -56 2 22-120 81 -55 -77 36 13 77 -120 115 -33 -123 93 113 86 -75 -7 99 91 3 65 57 -42 -35 -71 -51 -99 -2 -98 62 111 -61 12 -94 116 7 77 17 -85 -117 -42 -106 -82 109 -14 -39 -63 14 6 42 -122 78 -102 -9 107 82 92 112 42 72 118 -7 8 -53 -114 -33 111 5 -92 18 -63 38 -62 48 27 -37 22 -75 88 98 18 -1 67 -107 -93 65 57 -46 22 -32 -77 -126 85 -49 95 -37 111 -109 -47 -8 99 -48 104 -41 -121 -114 -84 62 36 86 -18 -83 -5 42 -39 -16 -99 -100 93 28 -120 -8 93 -38 21 -23 68 -23 -44 -87 2 -111 -85 -102 -73 76 34 69 -19 51 -3 -33 10 73 41 -1 109 81 5 -88 -85 -18 74 -105 -56 -85 -13 18 90 20 -5 -16 105 88 14 -52 -74 -20 3 -38 36 20 51 -85 46 -67 43 52 -65 -106 66 -35 -60 -66 24 76 39 -51 -33 -64 -82 113 -36 21 -48 -115 15 30 -25 39 72 35 -65 -60 -57 39 -94 -3 61 -8 -105 70 15 96 6 -116 98 -11 -36 -38 96 -15 19 -34 87 -74 16 80 -57 -121 81 57 32 -72 -51 27 19 4 21 -60 110 -41 -9 -94 -90 112 117 77 57 -18 44 79 -117 -7 -33 28 -21 -79 -86 27 -128 118 74 -39 101 10 24 77 74 20 -38 -29 -108 -17 93 -10 80 -27 -106 94 -111 -109 1 4 -24 91 0 -32 113 -81 98 96 32 90 72 82 -25 115 -109 -82 -120 109 -52 -82 -115 74 -71 32 119 -72 3 -112 -80 -119 -99 -17 -88 -35 -66 53 -75 -86 -4 -123 116 20 18 -85 112 11 70 120 -43 -3 -52 -55 -60 -35 37 80 89 42 -20 -64 94 70 82 36 -32 28 112 0 -107 -57 -79 17 76 -43 55 -48 21 -121 -6 -29 54 41 82 -124 -114 -69 -2 46 -115 95 40 -39 80 19 -10 93 46 -47 -101 -9 -46 -34 36 -68 -21 93 -44 89 59 -120 -100 84 -108 42 -84 -114 72 21 79 -28 36 -73 37 100 -81 56 -42 25 23 -24 89 -103 -75 -47 -40 -54 -71 -74 -69 -12 -86 80 -32 82 -10 69 68 99 9 58 -33 48 54 -63 -16 24 78 94 -45 37 100 19 17 53 37 -87 -56 77 -99 -72 -80 29 35 -52 35 40 -44 -80 14 16 -76 70 57 98 8 -95 75 98 -88 -103 79 -14 71 -33 3 55 12 -68 127 -83 37 -39 -77 -82 37 103 27 2 -40 -35 -24 -83 94 10 -89 28 -49 69 91 75 -66 -55 103 -70 22 -34 -103 -51 8 -23 -35 92 6 80 -98 -76 -59 100 -63 42 67 8 54 88 -52 -27 -57 -110 18 -6 -65 -91 -4 -10 -107 52 -20 33 -96 -87 17 -14 -52 52 -83 64 117 -72 -45 38 -41 -51 103 74 7 76 56 -30 -19 -67 -56 -26 -47 98 -101 92 42 -2 -103 11 -39 -29 81 48 102 74 -14 16 100 -25 59 0 -13 82 75 28 -44 30 -91 -16 15 11 86 17 -94 56 -1 98 -110 -38 -5 -57 110 -77 -40 69 -11 -12 -76 -97 -13 68 5 -55 60 -10 -97 -35 4 55 44 -92 2 -78 -57 58 -102 -6 -34 63 -77 20 45 -20 18 50 -48 -49 99 28 73 77 67 73 -78 -13 56 -71 106 52 79 90 10 -69 -95 78 15 -34 30 -38 -93 -32 95 79 -17 66 -60 -14 12 -24 -20 -97 84 87 -64 35 35 60 -54 38 -65 -59 -99 88 -36 28 -102 -31 63 -41 95 -72 -8 56 53 85 -96 48 -24 -7 -40 -42 38 53 -83 -50 -16 -66 -46 -39 59 1 74 -80 -32 -83 105 32 -68 100 15 62 -59 -35 50 -25 -61 -56 -83 -10 105 -87 -89 -25 -102 107 51 88 -107 34 -47 -99 87 54 -43 74 3 76 -60 -76 89 -64 41 92 -58 -17 -89 69 -9 -23 4 80 62 20 85 -53 -32 21 -73 -49 -30 -40 12 2 -36 -46 8 59 13 -6 18 7 42 -89 106 -23 57 92 -42 20 -6 26 48 -50 82 -23 100 -35 -58 -10 54 13 35 -16 15 -35 47 19 -48 36 -34 -38 45 -1 19 -12 -12 33 27 -64 -2 34 10 34 5 38 -12 -21 47 47 -12 16 -6 59 -5 -30 19 33 -17 45 -41 -14 -26 -8 -43 -11 38 19 14 6 -21 -19 31 -1 -19 -17 -3 -33 12 -24 17 -1 6 -9 -23 -30 56 14 -38 25 38 43 -40 -52 11 63 85 11 -3 5 5 21 21 -13 127 18 -31 60 27 120 69 6 89 74 -23 23 69 13 60 25 -1 18 8 -36 33 2 25 42 8 111 72 22 36 107 3 13 28 -22 -42 -58 -9 41 -19 14 -6 60 6 -10 -23 15 31 27 -77 -62 8 70 26 -18 47 9 -4 -45 7 -63 -81 -57 29 -73 5 22 49 0 -12 5 -15 21 -40 -27 37 25 -5 28 8 -21 12 47 54 8 44 -5 57 72 -26 16 12 67 -34 -17 1 -35 16 -35 23 -12 40 18 3 1 48 0 -28 45 56 -13 -19 45 22 35 49 52 35 40 -66 -9 4 58 2 7 46 -11 17 11 58 -17 -72 -54 26 40 -52 -56 -7 20 -18 -22 -15 25 37 -41 -36 34 21 16 -9 15 27 -11 -31 16 -25 -39 -12 -17 -34 -20 12 -28 9 2 13 25 56 23 -5 10 -18 -45 -6 -60 37 67 3 -50 65 14 -49 -21 81 12 -40 80 67 24 -1 -40 20 38 11 -11 -2 38 -22 -37 -29 -49 3 45 -32 5 40 -26 -4 50 -5 -9 -34 17 24 22 17 59 31 89 -13 -25 -33 42 21 -20 -28 20 45 -58 40 71 75 -28 6 5 -39 11 -20 54 12 -51 -4 -8 -9 -1 2 19 -21 -9 0 21 36 22 -38 -39 -40 -33 25 -32 22 -48 -15 20 -20 5 -16 -23 8 -17 27 3 1 2 -6 26 -32 11 36 23 -8 -45 10 -13 -43 11 7 16 73 19 7 -36 18 16 -4 24 15 -9 -34 8 -46 -17 43 -78 -62 0 -12 -25 -45 20 -23 26 -35 54 68 19 0 5 62 19 27 78 -17 40 19 58 0 -41 -5 -22 63 65 14 -33 -30 67 14 -12 -14 -6 -9 40 -12 0 13 -4 33 -8 44 -4 58 0 9 11 46 33 29 -16 -40 -41 29 5 -49 18 46 48 34 -20 -2 48 25 -3 -36 -13 6 32 -15 -16 -42 -5 0 -3 -2 42 -41 -48 -9 -31 8 -31 -18 54 86 81 -37 5 13 -21 4 11 69 93 -52 -47 49 73 73 31 -33 31 34 74 -41 -55 30 9 36 50 19 12 57 21 -49 -39 21 84 51 -80 28 66 31 20 -23 62 25 -50 -30 -5 -37 -28 -12 11 69 -32 -24 -18 78 5 -97 8 47 83 -7 -77 27 37 109 48 -3 46 -25 -35 -24 26 -26 -88 -58 68 14 -23 -42 -42 -66 -14 -1 9 -39 -108 32 12 -42 -70 -28 68 61 -68 23 -7 -8 -9 -48 -22 30 75 -36 -59 -36 17 10 -11 -6 50 -59 -3 -8 15 6 -24 -35 38 -27 0 -41 -28 -36 43 76 22 10 27 59 43 -10 41 -19 70 -37 -38 45 46 -4 -72 -9 14 -28 -33 -13 -25 -56 -6 -8 25 -11 -36 13 -29 52 -55 33 32 3 47 -29 -33 -11 31 14 -30 -22 52 -51 -16 -24 -11 29 -26 22 48 42 20 62 -32 -46 -30 -14 84 15 -25 -33 -26 -33 -9 32 63 -43 -106 -1 -34 -21 42 -33 -4 -21 -46 47 42 45 0 34 -41 25 -14 -10 20 -8 11 32 -15 49 -7 8 1 18 -47 -3 -33 55 -17 -62 29 -34 32 52 -81 17 64 19 -26 -24 -14 17 79 19 58 6 -7 21 -37 -22 -18 -15 43 -43 9 27 45 43 36 -39 -34 -65 33 14 -19 -17 -15 -29 44 -34 21 28 -28 -14 17 18 -48 -48 -47 31 39 -9 -19 -59 35 46 -75 -52 -128 -17 42 -70 -13 -19 43 5 3 33 20 50 3 -43 -29 -30 44 12 -32 40 5 41 22 -3 -98 -96 -42 13 51 -68 60 61 -14 20 1 37 -21 7 -37 -21 42 -2 -49 -46 -2 16 44 22 -17 3 -6 20 -19 7 20 14 -5 -22 -21 9 70 -15 -4 -2 21 -3 -6 32 -50 31 26 14 -50 35 -58 -53 19 -11 -5 -32 -29 17 0 31 -18 -4 -23 -43 7 -3 -36 28 18 -21 -36 -33 -25 18 10 -26 33 -40 9 2 38 -13 -32 -22 -28 -46 -12 23 -32 12 -31 73 26 -50 -1 -103 -8 14 -52 -29 -23 -44 -38 5 9 -14 13 -83 -23 -3 6 21 15 -35 2 8 58 32 12 -23 69 -17 20 -35 -49 -22 -44 -93 -15 14 1 34 -7 52 15 69 16 45 6 -24 8 10 1 12 32 3 48 8 -8 -28 5 -1 -1 -2 29 24 -30 -14 -49 48 19 51 -27 20 -45 48 -40 9 -2 0 78 41 25 25 0 -101 -128 -76 14 15 -41 -27 -47 26 13 4 95 9 -4 -28 28 38 -36 10 44 54 56 19 18 -23 -38 -105 -81 16 -4 -5 9 -1 13 28 45 22 -16 20 -23 53 -5 47 -28 8 53 26 -5 -23 -4 46 70 42 13 -8 3 28 52 45 -23 32 30 -3 -38 31 -41 37 -11 -7 9 -4 -30 -6 -26 -37 -23 36 14 -11 7 -32 -37 -20 -21 29 9 -28 31 -38 4 16 17 23 -3 2 27 12 -3 -30 -6 -75 -112 -89 -29 -71 -2 -19 23 22 51 0 41 10 -10 30 17 -45 -13 -32 12 15 -38 -33 21 10 -22 -7 -11 37 24 -42 -18 32 -44 -25 18 22 -31 28 18 -49 -29 32 -35 49 47 41 67 -41 -7 -31 30 -52 24 -37 -66 -34 -49 0 -5 -4 20 45 36 20 -44 34 -14 23 -23 35 26 22 29 48 -32 24 -44 -6 -6 -27 23 -41 -4 19 -36 41 4 39 -31 -43 -8 -17 23 62 70 90 30 37 41 -14 -34 -74 -26 -53 -30 -87 -49 30 43 -23 -2 55 -16 16 -28 -37 -27 -18 35 -2 47 39 15 33 33 -77 64 34 -60 -36 -14 4 -42 21 -2 26 -5 24 69 37 88 -64 17 -24 69 -56 115 115 92 -69 -30 19 91 -23 29 2 -33 73 104 -19 -73 85 -53 -84 116 -92 -65 -94 -111 -107 -61 -88 -104 -21 -77 38 -62 -98 113 -21 17 30 -59 -82 105 -11 -70 -114 -117 -98 102 83 -101 -33 -108 -29 20 113 92 65 36 -101 -96 95 -50 14 -66 99 -42 115 29 38 112 -102 -69 -127 114 49 13 -125 -115 28 -61 -86 -103 -123 -112 33 71 -13 -116 -90 33 33 -79 -31 7 82 41 -115 85 79 -108 -18 105 -48 3 -105 -60 98 -108 -62 -75 -24 -94 -2 -121 -101 31 100 -99 -100 -29 -100 106 59 -41 -22 -30 -27 10 51 -25 -39 -19 -33 105 -39 -93 28 -43 30 45 -40 -32 1 3 91 36 64 -111 -82 -61 -73 57 23 100 117 69 -22 17 -41 -59 -37 11 -44 -64 -88 12 73 -79 -122 39 92 -29 -88 20 -100 102 43 65 -115 -70 -71 -71 -99 18 -103 -73 -82 -101 76 -114 -26 -26 -19 -72 106 -51 37 -26 58 78 38 99 -23 108 77 40 97 -22 49 -81 13 97 -24 7 -3 16 -7 26 -108 -87 -102 -65 -42 5 -70 -75 -35 -38 -3 -68 -93 38 38 -25 94 -85 -75 22 62 80 -107 21 103 -116 -103 110 -43 -102 9 -33 -42 87 58 -66 -12 -116 75 -64 -3 -79 11 59 96 114 -33 -116 -35 -89 28 0 18 21 -19 -61 17 -30 -24 40 54 23 -27 36 -9 77 27 81 -118 8 -105 67 -29 -12 -103 71 -51 -13 -14 35 -81 4 -1 50 -1 -22 -56 -11 -110 72 64 -81 95 -55 17 -56 107 26 -70 77 -65 -35 -72 -113 68 118 -93 12 -100 94 95 7 114 -49 1 -6 -116 -32 101 45 47 69 88 -15 -38 -45 8 108 65 39 -118 -85 89 96 -30 101 -46 -57 -9 87 89 -66 -48 0 -44 -81 93 80 -24 6 54 93 74 88 -113 -67 102 16 60 -120 45 -21 29 -30 -75 58 -64 -110 105 -40 31 -74 29 2 -53 84 -77 -10 -60 59 29 71 -8 -78 80 50 18 2 -83 -3 -45 -12 -32 -65 41 -18 -60 -17 56 78 -43 -57 16 -3 61 5 -56 28 76 12 63 -13 -69 -13 -57 -29 17 40 -15 24 69 -60 -17 -34 19 -77 -71 -28 70 41 -54 22 47 75 -61 30 -5 -44 -13 -28 -3 1 31 -57 -71 20 53 -11 14 -21 -67 7 -49 -56 120 -30 -72 -61 -35 -23 46 -73 -20 -46 -38 -62 35 -11 -38 4 10 -46 -12 -20 37 23 -72 -23 71 43 -43 52 -68 13 -23 -41 80 -61 -25 -35 -82 -6 -39 -41 -28 -79 44 65 99 11 4 11 -56 -37 4 80 -42 46 31 61 -56 -37 26 -39 -60 39 -29 69 -63 -33 -4 50 -71 6 127 -19 -75 -49 -31 -23 -79 2 35 75 31 35 55 47 23 -8 -31 -51 -46 13 44 -11 8 -46 52 27 64 -77 18 27 70 -22 -28 18 -49 53 45 -4 58 -68 -51 -73 -72 -51 26 66 18 -32 -40 9 -19 -19 66 11 -12 46 -46 -39 -34 81 -69 -56 18 -5 -54 62 52 70 -74 16 34 55 14 -60 38 -52 -25 45 -53 59 -4 6 -49 27 -37 51 -66 7 -44 -40 -17 -15 28 -61 -65 -55 36 16 3 -50 77 -16 -14 33 -6 45 -28 -65 -61 29 -55 44 -22 50 -53 -69 34 -40 -73 15 46 -45 -42 79 -29 -29 35 -72 72 -67 -67 79 -13 58 41 20 71 41 17 0 10 11 -50 -48 45 -18 -73 -36 -43 -33 4 36 31 -34 -83 60 -50 -4 19 -12 94 40 21 -44 77 34 30 -30 -17 -31 47 26 -39 -53 -24 68 -56 55 -49 -22 58 24 -10 -38 57 -48 31 -11 25 -13 -43 59 -17 27 6 -11 0 44 -73 -10 -17 2 43 -47 -51 -62 -55 -57 -15 -24 -30 -56 -10 51 13 -80 -24 45 31 56 20 -8 42 -53 15 33 -54 -44 35 8 75 53 16 -76 26 -43 -51 -29 54 -26 15 8 -43 -9 -70 49 -1 36 6 45 13 29 -11 5 -104 -45 -53 -105 11 -81 -31 -71 53 -2 -67 41 93 9 -15 -77 71 -6 72 -102 -94 9 -21 -41 -35 -48 -11 90 -72 -10 1 92 -95 3 6 47 70 105 13 6 95 -80 -77 40 3 81 99 94 -5 60 -75 3 93 30 -63 -3 13 -80 -72 91 3 -45 24 29 -68 61 -70 98 0 46 73 39 18 -60 50 43 10 -12 -43 62 79 25 -14 -91 88 -28 7 5 -9 -42 -26 -84 88 -51 52 -106 38 -59 62 20 65 -70 -108 -35 -82 -14 -55 45 78 105 24 -12 65 -6 3 -45 127 115 -17 -20 106 -26 -69 74 -12 103 31 109 29 -71 -18 -1 -8 -75 60 2 -49 115 22 -99 -73 -93 -38 45 -86 -39 39 19 -45 32 -9 81 -47 -110 78 -20 55 57 -45 44 -42 111 -63 -43 -59 7 -70 -97 81 15 -82 -72 -19 36 27 26 -57 -43 -82 10 32 61 93 -76 -71 -21 77 36 80 -56 41 -108 -91 3 -105 41 31 -58 20 63 -56 -103 -56 86 -52 -39 -7 -9 75 -98 -63 120 22 8 -106 -42 32 7 -8 -29 124 47 29 -65 -39 -18 33 77 83 81 29 -22 -77 -49 -21 -4 -101 90 -28 -7 12 96 67 -60 -73 -58 -50 82 -51 -64 -20 95 7 -10 91 63 -61 -25 -40 -87 79 29 -2 108 52 -57 -58 16 26 -111 -65 111 -23 23 -93 90 72 -11 -2 95 -34 24 -48 -29 15 -73 49 -51 107 15 -20 -72 53 27 -26 -68 2 -20 -46 -85 -5 81 3 -3 -37 -50 71 85 77 -46 68 -46 -86 10 10 32 -28 96 49 76 70 50 -75 -46 -39 31 27 -57 -66 52 -96 5 93 -71 24 14 22 59 13 -56 -65 76 35 -36 -95 82 -41 8 -32 -22 74 76 -57 -15 -50 -10 5 -79 -77 66 34 -55 -96 -77 -86 62 66 106 91 -91 -19 -48 -77 -23 -98 62 -12 14 -42 72 -8 59 86 1 81 -53 32 -53 -102 -24 -12 115 63 15 74 123 30 -95 -9 98 5 -69 50 -42 -65 -34 57 48 -76 -101 -29 -24 87 -52 -80 -48 51 -85 -94 -24 -30 -96 -59 -66 114 36 -29 -112 58 -8 -70 -15 -32 10 116 -9 57 110 31 -109 -88 -106 -5 52 106 -101 100 48 -35 36 4 -70 -113 32 -77 39 -52 16 -27 67 11 86 35 -64 54 -8 -10 3 -68 -80 55 -34 36 -15 -63 9 -9 -56 -19 104 56 -39 109 -81 -20 -113 -62 3 86 106 28 -60 90 45 8 -38 -20 125 28 74 -101 75 2 5 73 -23 62 80 -61 -95 89 -62 -46 51 125 -95 100 -2 -62 -111 26 -38 -78 -89 -68 78 89 -44 81 51 -70 30 31 -33 -111 -12 16 81 -52 111 73 -98 103 -53 76 7 -116 35 115 -53 84 36 63 -61 -85 -93 64 57 60 62 -104 67 -78 -110 7 -26 91 -16 -34 95 19 101 -11 -63 89 -22 17 -106 -96 -87 73 -91 71 83 -103 -89 -5 -59 -17 -78 86 -89 51 83 73 -51 11 -1 34 25 1 -111 14 -19 -62 116 73 93 -103 3 100 -88 -104 -83 53 -81 -56 -104 114 2 -64 12 -40 -81 -54 69 -75 95 -2 -111 -14 -49 -75 9 -85 -98 -11 -63 -15 113 48 -74 -25 -45 -55 52 -43 37 -18 -3 121 -78 103 -86 6 122 -102 16 106 88 -2 -10 -111 105 -32 90 -22 127 -81 -76 44 1 81 62 69 -42 -17 105 76 12 117 43 -66 -98 -79 86 -63 -99 82 107 49 37 -92 56 41 34 -94 86 -52 -78 91 -44 62 8 -24 -24 -57 28 -75 -85 -49 -44 -92 6 107 -87 -86 -5 64 59 -16 -38 -66 66 -59 -109 -81 54 -77 -102 -61 35 45 22 -22 -64 10 41 -9 94 35 98 96 -97 -22 84 -75 47 35 -101 57 -23 72 -93 36 -102 -28 89 -95 -101 90 79 31 8 -74 -9 -33 42 61 28 -41 -88 65 106 -69 82 64 -14 -72 -47 66 -81 -102 92 55 -1 37 7 50 31 17 -91 -36 -24 -100 -78 -23 46 -50 2 25 43 -46 62 -68 11 49 -63 33 -21 -72 58 -93 1 75 -60 41 0 49 -28 -28 5 40 35 48 52 -12 14 -23 -32 -8 35 6 48 2 -34 -24 19 12 -25 24 -4 26 23 -29 -17 -31 42 -27 -44 49 65 46 -47 20 21 28 -19 -10 41 -38 39 -1 38 32 47 16 -47 -14 -11 -15 39 38 50 -26 38 64 -37 -54 -42 -35 60 19 -29 -1 -66 70 36 -57 83 -49 1 29 66 8 20 -7 41 -8 19 10 17 -95 -25 -49 -12 -10 27 -27 -9 22 64 32 80 75 45 8 26 -31 -11 -44 4 -17 -24 6 -33 79 68 -24 3 -79 58 55 28 -38 -30 44 28 -48 11 37 45 -18 -5 8 0 -59 -8 -10 16 16 -113 -86 -85 -14 19 -50 -89 -69 -71 47 70 35 -20 18 24 -12 -32 60 -16 19 53 30 1 52 24 8 -87 -8 -6 -14 33 -79 -31 9 25 -22 5 16 -11 18 35 -33 79 28 25 -3 35 0 39 40 -18 88 -17 -27 14 14 78 -29 -22 47 4 -46 -1 23 11 -38 20 -27 18 -37 1 -26 1 5 -53 42 37 -23 -29 25 -45 7 15 -36 -7 17 15 26 53 -4 28 -9 -12 -36 5 -15 27 53 54 -76 -62 -91 -12 -86 3 12 51 -24 -26 -34 8 -44 -36 43 20 -43 44 29 -65 63 57 20 29 -17 33 -10 23 -48 -19 40 31 27 14 -17 -35 -51 -38 -50 -6 44 -2 9 -8 31 -27 18 -40 19 6 33 74 36 -2 14 -72 -16 41 11 -35 -52 28 69 -7 -22 42 24 10 -40 41 -26 -35 -39 43 -28 56 33 30 0 -14 -28 -63 -37 -36 61 32 -14 -42 11 -44 -39 17 64 32 -50 -17 -43 46 -25 34 46 -6 -127 -36 69 -43 25 -76 -28 -7 -46 47 52 47 -30 -18 32 65 60 22 23 77 71 45 52 0 37 56 25 -20 0 42 -5 3 26 13 10 -56 -1 -37 19 -47 13 47 24 -49 -10 45 -23 -98 49 91 18 13 45 -98 22 45 65 40 -71 -16 16 75 -16 -5 43 107 108 -85 11 -49 -29 -53 51 100 50 -34 -65 -72 -12 59 -73 104 -76 40 31 66 -73 11 9 69 -122 34 33 -108 -106 44 50 4 -120 49 72 55 67 -108 -41 -16 56 110 21 -29 19 3 112 73 -69 -110 82 -88 53 32 -32 105 -14 -44 -108 -75 59 -70 -126 56 110 -19 -11 43 52 6 73 127 54 -46 24 -42 -17 -74 -11 -109 54 -45 71 58 -29 -80 -124 -118 14 -111 -65 -21 68 -32 -84 14 -56 115 -84 -112 57 -44 -13 -54 -1 -94 -90 -108 99 -89 -22 -82 115 86 -70 -59 -10 -98 -66 -8 37 -95 -77 -61 -120 -37 -79 75 12 9 45 -15 76 39 102 7 36 27 -54 -27 -39 49 -73 -66 -104 -30 -15 26 -101 119 77 -32 -36 117 -9 69 26 -99 -105 29 64 -79 9 -3 94 -30 -100 -57 87 22 -32 -118 -105 75 -85 10 50 122 -103 -57 -72 57 87 76 -89 112 57 -87 73 -40 -99 -54 76 -106 -89 -112 -19 104 -68 -32 -32 -12 -91 48 -110 -67 12 114 -18 -107 65 88 -58 116 -29 10 -34 73 121 16 35 119 55 117 87 -75 80 -104 -104 -19 91 112 -56 -85 -86 100 -110 -65 85 -98 60 -42 17 -99 94 88 71 -10 23 -8 17 -65 107 -110 -68 63 -38 77 -74 -21 47 102 -9 81 7 -73 30 36 -43 50 19 41 -116 -49 66 61 -30 74 -56 -54 -74 -17 -56 35 89 112 76 6 -40 -45 28 -35 -31 -81 -20 -46 -11 -39 10 35 92 -90 31 -31 88 102 29 -34 -36 -75 65 109 -102 12 -61 -121 -27 -21 -69 -48 118 68 74 57 2 -22 -89 -4 73 41 -114 -8 3 -116 82 79 -82 -12 1 -118 49 97 85 -64 -118 2 -26 34 60 58 15 -54 46 51 88 60 66 -19 -1 -67 3 -76 -6 20 109 -78 74 -118 33 120 28 23 -89 -124 22 -119 31 -104 -84 46 -100 -8 4 78 -52 -27 -39 2 53 -41 14 -21 10 99 49 46 -3 -45 5 35 -1 4 -2 4 -30 -21 5 15 -52 -21 21 -42 -15 1 -31 26 11 7 -24 57 -22 -53 29 -3 42 19 12 8 11 3 -13 -5 25 20 -66 -24 31 30 10 -15 -12 22 40 -2 48 -5 15 13 -20 30 16 -10 -27 23 -11 23 -63 -92 8 -15 -20 -64 -57 87 21 -17 -52 7 -14 72 -27 -7 -69 -25 35 -70 44 -6 -15 -37 -116 -78 -8 24 41 41 -67 15 33 41 43 -68 48 -50 -92 -4 -90 13 9 -27 -37 -22 96 82 -17 -68 39 -49 53 62 12 26 -3 70 24 46 54 7 64 -24 25 -7 -2 -47 90 6 -40 -9 89 88 -15 -32 -8 -10 14 6 -60 -44 -6 54 17 -31 -44 -31 2 -55 25 69 31 -30 -85 88 54 -42 -80 -100 -51 -60 -23 -13 -4 -60 22 13 -3 -1 -21 -21 24 17 -46 51 21 38 -20 0 -5 -9 -6 -22 -13 -25 46 -18 12 -30 -10 71 -48 -58 -46 52 78 -18 -46 24 -39 14 41 13 9 18 18 48 33 -4 -42 37 -8 28 6 -13 11 -31 12 8 36 -38 -29 45 29 12 -31 -4 -29 25 -21 18 50 -4 -10 -32 -36 -17 -28 4 -41 43 6 65 48 19 52 -62 28 -23 -56 27 70 -50 -86 33 78 -93 -128 -54 35 -28 -12 -35 7 -5 26 -9 21 30 -11 6 16 -12 -19 24 8 30 11 -33 -7 10 -21 -4 14 -34 -15 -8 -34 -35 -9 -9 35 33 31 -49 -23 24 68 26 -4 -80 5 65 -29 -20 17 62 23 -79 -26 -44 -33 29 -6 34 -20 28 55 56 -13 -21 35 41 34 -4 -6 18 13 -32 12 2 7 -32 -9 -20 -32 44 32 18 -57 -42 18 63 12 -11 -15 63 -22 -53 -25 -21 50 45 -52 27 40 -6 -5 -72 -65 19 5 -18 -41 -53 48 18 14 -16 -28 40 9 65 -18 -59 -38 29 29 -92 55 21 25 -106 -79 1 -18 -104 -50 -15 64 -8 -17 -9 -2 24 22 3 38 73 -15 1 -26 56 -9 -23 -2 -43 -37 32 25 -3 -54 10 -25 53 51 15 42 -28 47 59 10 -8 -6 26 -36 38 9 -12 -30 28 18 22 -61 -50 -21 -33 -51 -71 21 53 10 32 13 -45 -37 -46 -4 57 35 -56 -16 -28 59 -36 -26 49 -30 -10 25 4 -85 -68 -25 72 110 19 29 48 58 91 48 25 24 -31 47 -23 1 41 67 -25 -21 18 34 56 52 -23 42 34 9 33 60 -54 -25 -29 -4 42 -37 -32 -15 27 24 29 -39 -14 -29 41 46 46 -38 64 -40 -76 -20 60 56 -37 5 -17 28 84 60 35 -20 -76 -72 58 -50 -29 -99 -68 -12 89 32 -38 4 83 108 61 5 -79 52 100 127 -17 1 50 88 5 43 19 -50 18 -64 78 59 -56 -110 -88 -24 -50 21 -21 21 -16 1 4 38 63 14 20 63 75 -19 1 12 17 18 -13 34 -41 -18 -45 -10 18 -23 -104 -91 -22 49 19 -81 -65 50 43 26 -46 -44 30 35 14 11 32 -35 24 -55 53 81 -41 61 -31 -45 -64 30 4 -54 37 -19 -12 -12 -26 64 28 46 -24 -20 -3 -34 -53 -36 -54 -21 31 2 -6 53 -63 17 48 59 -22 13 -3 111 -65 85 32 26 48 21 6 -48 -55 -38 57 23 53 -8 13 27 50 -37 -28 38 29 -14 -50 -45 23 -40 12 -37 -33 35 7 33 -55 -10 -27 -58 -2 -3 53 -32 42 -30 -28 34 1 76 -10 22 -55 -38 -6 -46 28 -21 41 -52 17 -15 -55 -34 -40 13 -34 3 -44 45 9 -61 -38 2 -40 -40 17 53 22 1 -43 -6 76 -46 45 -36 -45 14 19 7 28 20 51 55 -32 -4 14 90 104 -2 9 -18 71 38 48 -16 16 68 58 12 -15 14 -58 -8 -56 11 2 -23 -53 59 8 -66 -86 -17 59 56 23 -57 34 -70 102 71 29 30 -4 11 1 9 -15 39 -38 33 -101 -93 -87 34 127 112 27 -60 -65 -24 -66 42 30 -41 -28 26 -8 20 -61 -102 -63 -55 -25 30 -39 22 -60 87 8 -28 55 -47 85 26 -36 -61 52 -84 2 43 -65 74 -23 -13 35 -42 32 -23 44 -38 -59 -71 83 59 32 -44 3 -19 69 -17 13 1 50 82 56 0 50 -52 60 60 81 86 -10 46 -16 78 -80 75 73 -2 -16 61 32 -14 37 -53 -17 -35 -43 -82 38 51 -40 13 -23 -43 -99 25 7 37 -66 -41 86 45 -54 -8 -10 -12 -47 30 94 -55 34 -74 24 65 -85 -69 -8 -2 -26 1 -13 68 60 -87 -50 60 -73 -24 42 -33 -60 47 -16 66 -39 -72 28 -12 -20 -37 4 46 -19 67 -61 91 18 66 46 26 -43 -9 -70 -4 47 35 -67 -103 -4 92 -26 -7 78 -104 -68 -55 68 -32 -15 38 -13 40 -34 55 -57 81 -82 22 50 -40 35 -87 59 -87 2 -23 43 -44 -55 0 -55 27 -86 6 -17 71 -64 -27 22 11 -72 96 122 5 55 34 14 -46 10 15 26 33 21 -26 -33 92 29 -27 64 -31 -15 60 39 8 2 -73 -44 -1 -49 81 -32 -29 -30 34 56 57 -52 20 19 35 -1 40 -40 -32 42 61 47 -54 -39 67 -18 88 50 -8 -31 10 64 -8 -48 -29 -26 80 58 56 33 57 -71 34 -28 -97 69 74 -67 -84 -74 45 39 -69 19 -89 73 80 -10 17 10 -91 46 69 55 17 -49 25 -48 38 50 -72 -44 -67 75 34 -2 73 41 -8 91 -47 -79 15 -27 67 38 -3 -14 -71 -41 44 53 28 -64 -92 -10 31 35 1 -66 6 -2 -53 43 -5 -76 -40 -48 -53 -34 -61 17 -31 -95 48 -51 26 -30 73 90 -91 75 7 -91 10 -17 70 0 -61 -52 76 3 -15 -18 -51 62 36 31 84 -72 -5 9 58 -46 -63 -75 23 50 -9 -54 -44 -66 56 -63 55 -21 -88 15 -2 -32 55 9 25 63 -93 -63 -45 89 15 -69 96 -14 2 79 22 -54 -29 80 99 22 -22 -52 65 111 -48 -8 52 -3 -26 -102 30 -58 11 -29 9 45 -64 24 -27 -43 17 4 1 -69 49 27 13 30 40 -64 -21 52 42 -31 -28 42 31 -69 -52 -32 -45 14 -7 69 4 -42 -50 42 36 -20 -30 6 59 17 39 -13 14 64 58 -58 2 54 61 17 57 -59 -62 35 -24 14 -67 24 -43 -30 -12 -34 46 -62 39 -10 11 -39 3 30 -47 -62 22 -10 -31 41 16 -16 -107 49 -13 -46 -87 -32 56 16 -91 -55 -52 -59 -14 -15 -10 -6 56 27 61 -51 34 23 -31 -27 -11 -42 -90 76 2 -55 -101 -14 16 31 28 -20 -102 -38 6 10 32 45 58 50 14 -24 10 14 110 11 2 -33 -80 -17 1 95 29 -91 80 29 -28 -10 -24 124 88 45 11 -37 -18 67 16 103 77 -58 7 17 -24 74 34 103 124 38 -50 -12 -48 50 -35 -4 -27 46 7 -15 19 -50 14 65 22 -2 -68 -31 -39 11 -37 -52 -71 -10 -55 -2 12 50 17 1 52 47 -41 52 7 -27 45 57 47 -23 -39 -29 -21 -32 48 -47 27 -14 -67 -58 -20 -9 64 -55 8 -57 40 -21 -13 25 -9 -40 44 64 -40 -12 38 19 -48 -25 34 -59 -15 40 20 -11 35 68 -57 2 -15 70 16 -33 11 12 83 18 32 66 46 -37 0 -105 55 -6 -8 5 -49 27 -21 28 -18 57 -33 -30 -15 -82 49 -32 -42 -2 -39 -15 24 -14 54 -35 24 -8 26 -55 7 4 -87 -24 -53 37 -38 58 60 59 -53 -32 -32 19 93 72 57 31 -78 71 20 29 -42 -36 14 70 66 37 17 -20 19 46 24 18 66 -41 -31 -51 -30 16 39 8 6 -32 57 40 -54 4 17 52 22 -12 -49 -24 -55 36 25 -26 1 73 102 -36 -67 -34 60 6 -56 -4 -13 5 25 -2 -18 44 37 7 -15 7 -56 -35 76 48 127 59 44 -2 -83 93 -78 71 0 96 71 86 11 -83 -17 33 10 -60 66 -38 -62 -6 0 54 95 19 -26 -19 -56 104 87 -60 68 -48 24 -13 54 34 1 45 -6 12 -67 55 8 59 17 -31 33 -15 -50 -36 26 -22 -52 -48 -2 44 55 -13 15 -41 11 41 -62 8 31 -38 -9 4 -22 0 -64 -19 46 -17 -18 55 50 -19 61 -4 0 46 44 61 -12 1 8 61 20 -55 -58 -109 -24 -13 2 -64 5 75 47 -112 -85 -15 89 -1 -34 51 -106 42 44 -58 67 -34 -22 -11 -55 -19 -44 33 -28 -28 -64 37 19 -28 -26 -27 -65 -55 -75 25 -70 -57 -25 -6 -30 26 25 10 -8 -67 34 -13 69 -11 8 39 -35 101 83 -29 -53 -27 46 -19 -53 -3 24 -67 5 21 32 -35 40 -4 21 -117 -2 -56 -40 109 -19 16 70 -56 -49 -7 83 97 57 -76 -29 48 7 -5 -87 40 72 28 27 11 24 -36 -80 30 84 -87 -22 -39 0 -2 -34 37 21 -31 10 47 -10 -62 34 6 -7 15 8 58 -8 39 85 -30 2 46 -26 19 -65 1 18 -71 -17 -37 -87 -70 -45 20 47 -50 -4 12 -9 48 32 -60 -70 37 -1 32 -30 -23 -60 -16 -72 21 58 53 20 -10 -47 -3 -70 48 -64 13 -5 67 -4 -55 -51 -115 10 -80 50 53 -65 -25 31 42 -30 -50 -60 1 -18 -23 42 65 6 26 -49 100 100 35 -52 -40 -6 62 35 20 8 27 53 -57 14 -46 -18 56 -43 51 -45 -24 15 22 32 64 -56 -7 -6 41 33 19 -2 10 59 56 -58 -50 36 -67 -50 1 -49 66 -33 -24 -20 -127 -44 -23 -68 30 6 57 14 14 -15 17 44 -23 1 -63 11 -27 58 -47 -51 -20 31 -48 20 56 30 8 -31 13 54 -23 -48 46 -15 -108 -4 0 57 84 -72 9 -32 -47 -23 25 22 31 -43 -13 -61 -85 -13 -31 13 -25 87 -21 -33 15 -77 12 10 5 35 -103 -2 51 -99 -10 -83 94 41 -8 22 -72 -88 16 -20 -86 34 -4 -25 -6 -65 -3 11 3 -5 7 2 21 -34 -3 42 56 32 -4 19 55 -8 45 4 32 29 -35 -24 8 -29 -27 -26 -18 -24 8 -34 -26 -40 -31 34 -7 22 -51 14 21 -16 -10 -17 2 -13 9 18 -4 5 30 8 -33 31 5 -16 25 -12 -32 -7 -32 -10 37 -31 -6 -39 28 3 -16 -14 -8 29 38 23 -4 24 -28 -71 -101 -47 40 -46 -50 -17 -39 -7 1 40 81 -57 41 -3 74 67 37 38 74 7 -37 -32 -37 -34 -3 -34 15 5 32 -7 3 47 1 -58 -16 37 -7 0 -3 -39 -5 32 29 23 -35 -15 33 5 -59 35 71 11 18 59 53 37 17 -22 17 20 95 -21 -12 4 9 -13 10 34 46 -1 -2 -15 23 34 -9 -82 12 -12 3 -39 -103 -23 -25 -21 -52 -128 -71 25 16 51 11 19 66 -13 -10 3 29 13 -21 -44 -4 -46 -39 -6 -52 -84 -51 3 4 0 12 19 25 20 -6 46 5 0 -15 -21 -4 10 25 18 -22 27 47 24 -16 -14 43 -20 -85 -11 17 -17 38 40 2 25 -27 10 -2 -27 -49 8 18 33 -17 9 -28 3 -37 36 16 22 18 -18 22 20 16 -45 39 40 -48 -25 -13 22 21 37 -16 -7 36 -20 -51 -19 13 36 -16 13 -38 -45 11 -13 55 -35 -68 52 54 -3 32 5 64 -18 -58 -32 -10 -51 -33 7 -32 32 23 -15 6 7 18 8 -3 -34 1 -23 -24 -30 10 54 11 -48 5 -26 39 8 -5 -17 -1 11 45 56 42 -28 23 26 20 30 17 14 -8 -61 15 -23 -13 -37 54 2 -26 -2 71 68 0 1 -29 -27 -34 -38 12 -36 31 26 2 11 -24 -27 6 12 -5 -48 2 -62 -27 14 13 16 33 11 -4 -8 42 59 15 -83 -62 -24 20 -31 -76 -49 -89 -50 -105 -28 -8 26 13 55 -14 67 70 43 23 -12 -18 1 19 -7 -35 -38 27 -38 -23 -32 -3 -48 22 -30 -23 -11 -38 37 -41 -9 16 77 19 -18 31 -71 -102 -79 83 -49 -109 63 20 -119 63 -60 -52 0 -17 -104 -108 101 88 53 48 -97 -41 -90 93 58 71 18 -34 -68 -7 112 26 -12 58 -82 -120 -65 -29 93 43 16 -18 -99 -47 -17 -1 -79 13 92 16 -30 -95 -109 99 109 -118 75 -29 -70 76 56 24 -50 105 -120 -126 98 -122 62 -36 29 -44 -107 -106 -114 -30 83 104 96 -29 -91 72 -75 -81 123 -45 -76 87 -77 -114 -23 60 -3 -110 -13 -124 -44 13 -39 45 117 122 100 -109 -12 -49 100 98 1 -45 -61 -60 70 -123 -77 117 82 17 14 -41 -40 -34 -40 -50 -20 -103 104 15 117 39 120 3 1 -63 -44 -109 32 -38 51 67 116 -96 -71 -78 63 6 35 -83 98 -126 -21 7 56 92 76 -97 108 -123 -87 42 36 76 20 89 4 -75 -111 41 -33 37 61 127 -33 22 -57 59 -37 -58 2 -127 -89 -100 -111 125 23 -106 49 -56 -86 -127 51 -19 87 99 -122 10 120 -61 -118 -115 -99 -125 -103 61 -122 49 92 51 78 24 67 101 -95 -85 -90 -61 62 -77 -121 15 -116 116 -17 28 113 23 52 62 -118 -96 -23 -46 88 123 125 -107 120 -26 76 -113 -58 -42 -20 -56 122 -55 96 1 23 -108 -54 63 -53 -56 -55 65 74 84 126 -33 -80 -96 -58 30 -92 -72 -64 -29 78 -88 -73 -55 -113 -98 93 120 -84 -5 103 122 -122 -87 -99 -48 13 123 87 78 72 -85 -18 -125 -70 -91 -85 -32 40 31 -51 -6 127 -83 -127 113 -118 87 70 -122 123 -10 -114 76 37 -92 -11 -103 -17 -22 -65 -66 -76 -48 -113 82 -65 0 -90 -82 -38 -114 113 -85 -30 2 50 58 -24 -95 -120 -7 -84 120 9 17 86 89 16 -31 -35 -67 87 47 46 69 33 109 -124 29 38 -62 77 -45 89 -45 123 1 -109 -39 -108 1 77 -34 101 -108 61 -113 39 -93 48 10 70 -80 -73 -120 -11 65 37 -107 76 -3 30 -125 -77 21 -124 -56 48 -55 81 9 27 91 26 25 1 -5 13 -14 8 -72 -78 47 -83 -43 14 40 22 -52 9 63 80 74 39 37 39 56 -15 26 -13 -6 -16 34 -46 5 -8 -23 53 -26 9 1 -10 -70 -22 29 -50 3 53 -21 -40 12 43 27 16 -27 -11 5 -29 22 19 11 -34 23 28 -42 -44 5 -42 -37 23 -19 41 12 -13 -11 78 50 107 21 -19 23 -39 62 51 32 -30 -19 3 -5 -2 -6 -22 -12 -44 -9 9 55 127 46 -18 -42 24 8 26 1 -29 -62 17 26 58 -6 1 -30 3 0 -20 70 37 -8 50 29 55 -55 9 18 -9 -16 83 48 0 -21 -38 59 97 20 -36 -44 47 -6 -35 -43 23 -17 14 15 18 91 18 -48 -7 68 31 -65 26 42 -4 3 -27 -55 23 11 1 26 9 4 -6 -14 -46 -68 43 -38 -69 16 -17 10 61 34 -14 -52 20 25 59 44 -41 14 -64 -46 -16 -30 -44 -74 28 -6 -25 34 -4 17 -36 -24 -26 -10 2 59 24 -32 -18 43 36 22 -11 -56 27 -23 -37 -50 -31 -4 -49 -14 4 -15 -3 33 -20 20 -21 -40 27 -27 -12 -26 -23 13 4 -30 50 42 -11 -27 -44 48 -29 18 33 -36 -17 -29 -23 42 -43 17 4 42 -21 -16 -8 13 31 -2 -9 -47 -38 -15 -4 25 32 3 4 43 -22 -26 -42 -65 88 -21 2 -13 -18 -10 -19 5 -14 13 -17 -45 -11 -56 -42 8 -57 16 1 0 47 34 32 49 23 26 39 -34 -36 5 29 -5 -30 -41 27 22 11 14 -53 6 76 -46 9 49 89 -1 -14 -20 -58 -9 -28 -43 10 -41 -38 -12 -2 -26 19 1 -47 -50 -47 -5 -43 -59 -37 -48 22 24 25 43 -54 -14 -3 -10 -28 36 2 -39 -47 -38 -32 64 3 -7 -64 -18 3 -26 -22 40 -46 14 25 43 -24 -41 -22 -12 -48 38 -5 14 63 -43 -15 23 16 81 -48 -53 -9 7 57 -49 8 -12 -18 27 -15 9 -18 -20 -23 30 -8 -18 -9 24 -13 3 16 55 -12 -21 -39 -37 26 39 -107 -66 -26 -59 26 29 9 -28 20 75 62 3 41 23 -37 19 34 -36 16 -34 -18 15 -27 -20 -15 -16 -17 10 30 31 -47 19 -18 -38 49 49 40 -44 21 24 32 -14 -16 -31 29 38 -63 33 -20 -37 -24 -8 -48 36 23 -29 35 -21 21 20 44 3 57 94 22 -23 73 12 69 -7 13 2 -16 -15 93 23 -70 -24 -93 -33 28 -87 29 -23 56 49 -14 34 5 -19 -33 59 35 49 5 2 46 -43 -32 64 115 -26 -16 -32 -3 -115 -7 46 45 -26 -58 48 37 -65 -77 -47 15 -2 20 61 32 52 8 -78 55 20 7 -32 -72 -6 4 -67 -27 82 71 -11 -19 79 59 65 57 11 124 1 42 24 67 43 127 74 39 -50 73 34 62 -50 9 -12 -51 -35 -29 39 1 -7 51 53 -19 67 38 -1 -93 52 41 5 60 17 -59 -10 20 59 17 -14 46 -53 -18 2 10 -22 -87 -77 -12 27 -33 -8 59 118 6 -46 -29 13 -35 -28 -40 -9 -42 14 -31 13 86 15 -1 -33 26 20 -50 -17 -25 -34 -35 -28 -3 -3 -44 -15 41 -50 -36 -21 47 47 9 -20 -28 -44 44 1 -46 17 35 46 -2 98 72 -39 18 10 50 -6 -16 35 -31 -59 -21 28 -3 -21 71 31 -42 -44 45 48 13 5 11 -39 -43 -44 -42 63 1 -23 44 -33 6 39 -49 -31 2 -28 -30 -7 38 14 57 -22 -42 -58 -5 -78 1 26 -43 26 19 68 81 -8 -56 63 17 -45 48 -43 76 5 15 18 -31 -49 -79 22 -23 1 -40 19 -2 36 -20 1 -37 8 10 -2 47 -47 11 22 63 74 28 -3 -2 -56 -39 -3 2 -39 28 -4 -82 -9 39 13 29 17 26 75 15 36 87 95 13 10 -2 30 -33 34 -52 -78 -80 -20 -58 24 -36 -7 29 98 58 33 18 -23 -4 75 14 33 -41 44 -39 -21 -59 -39 -26 -44 -103 -26 13 11 -22 -20 45 32 40 -59 -62 -77 -12 46 10 48 -19 -26 -9 -63 18 56 22 -36 -4 -70 -13 51 -30 -50 -18 -23 21 -34 16 23 -10 -45 -33 -22 -43 -48 -34 -42 55 86 36 26 14 60 -12 -46 17 54 -46 73 77 23 16 -21 -55 57 -33 -17 41 62 52 -47 53 33 33 -2 -44 62 5 24 -47 17 -74 -99 77 93 -22 -92 -64 68 -18 -55 48 -26 40 -62 -44 51 -102 70 25 67 34 12 -60 4 -8 -53 -25 -15 7 18 -31 30 -14 28 -7 57 12 107 83 -14 -22 -79 -49 -89 -16 -26 -20 37 76 33 55 0 -21 3 46 25 -10 13 46 23 -67 -4 -3 47 -23 -9 23 -77 -78 24 -14 -103 -20 -69 55 17 57 -27 7 14 10 -29 60 -41 -27 -23 18 65 -14 -94 -12 -8 -38 -44 49 33 108 0 -33 18 -76 2 98 18 25 -60 16 57 25 -70 29 51 2 -67 21 -32 17 10 13 66 -7 100 73 90 1 42 48 19 60 -9 2 40 22 22 -18 18 42 -75 14 -37 -42 -43 -9 -66 21 -36 0 62 2 34 -52 4 70 60 -23 -8 36 -25 0 11 -28 -28 40 -18 -46 62 -43 30 25 -35 9 6 68 -57 61 -1 26 51 -11 -76 -1 60 12 -21 17 41 26 75 -7 -44 30 -27 -9 -27 -3 71 55 60 -24 72 14 4 31 57 -52 -42 -28 66 33 -10 13 39 38 30 13 -63 -12 -68 2 2 -17 31 44 -47 15 -4 -53 24 7 89 27 -1 31 5 11 -73 -95 40 33 -49 17 44 16 -86 -37 -9 46 20 -7 86 -25 17 42 -53 31 -11 21 14 22 -21 52 63 -39 -26 27 -48 14 71 2 -1 -34 14 -1 12 62 -31 50 4 -5 48 -26 11 7 28 -27 53 -9 19 47 -15 46 -5 -5 -72 0 50 49 -57 32 56 33 -40 -48 108 16 -20 -94 51 59 44 24 127 -34 -13 -78 13 -21 -16 54 27 -12 -14 -46 24 -34 53 -61 -10 42 22 21 -31 31 14 0 -7 -18 58 -95 -15 -1 11 -45 -11 32 -6 -23 -4 41 -20 24 27 1 18 0 -4 14 31 -50 9 -14 62 39 -46 14 -34 24 57 -33 41 0 16 20 56 54 -53 -26 10 41 -7 0 25 43 -5 16 -36 -5 10 31 6 25 -21 -21 2 -41 28 26 18 17 -1 74 -49 -28 94 54 23 51 16 52 36 45 31 127 18 -20 -21 -38 -88 -16 -56 17 35 -13 45 -57 -23 -12 -1 -13 7 67 16 71 6 94 14 52 54 91 17 19 55 15 -17 -23 -40 34 -7 -37 -13 -21 20 -86 44 70 46 -72 11 111 81 -14 -58 51 61 24 9 -52 44 2 -45 -46 -64 -19 106 30 24 36 2 63 47 79 -8 -19 10 24 59 44 62 -14 -32 -29 43 -15 -13 5 10 -94 -27 -6 -70 -24 39 1 39 9 6 63 -52 -61 -42 -17 -1 25 31 -43 -5 -21 -79 -77 19 8 37 23 -56 2 8 -77 14 49 13 -68 -20 -20 75 -9 -42 41 -90 -60 -46 54 52 -52 -53 23 22 -36 -11 -2 -49 -14 27 -45 5 19 -40 -1 36 43 27 45 34 23 -6 28 -51 52 15 2 13 -50 -66 53 -57 -8 50 43 -26 10 -2 31 -30 41 -32 -7 -91 20 38 -3 -100 2 17 -10 -50 -18 32 3 0 25 10 -43 -39 -37 29 -19 -8 51 -44 -7 4 -12 -43 14 -21 -24 8 1 -4 -48 9 19 17 21 41 59 -4 4 -18 91 -25 41 34 -39 69 19 -10 -47 45 50 21 -58 43 32 13 23 -60 -87 17 11 -50 -50 -47 -25 -61 34 17 20 28 -15 -49 50 35 -2 33 26 -8 38 30 -35 -58 -60 -31 41 -54 -49 -53 33 -36 -25 -4 69 -5 18 -23 59 17 -2 -2 41 -8 31 -7 -62 -44 -18 35 -90 -72 -73 -29 -31 -66 -29 34 -2 -12 -34 -20 -24 55 -46 39 45 -58 13 -18 -19 -44 33 -35 -14 -26 -61 -23 -20 11 -7 -41 10 -12 22 -1 -11 64 41 72 28 -87 14 -35 48 80 -16 65 75 9 -20 31 23 50 -41 -22 -51 -26 -49 30 -36 35 -27 -47 -45 -55 40 0 61 41 -14 17 -23 -16 63 -16 -46 38 -20 31 23 -56 32 46 38 -25 -34 -41 -12 51 -54 -56 36 -22 -27 -49 56 -36 -51 58 48 -34 -25 -39 78 5 -105 -33 47 109 56 4 -54 28 42 -31 -55 60 35 68 -15 -42 -5 46 -66 -29 -57 122 82 50 -5 -15 38 39 53 39 38 34 6 8 54 -4 -40 62 58 -30 5 33 -16 -15 -9 46 70 74 33 64 -20 -30 46 33 120 -22 4 0 101 95 -27 -14 -53 25 111 -41 -86 62 75 -38 7 67 127 50 -96 -101 -37 59 50 1 38 9 31 38 -56 -20 -46 24 27 -45 -17 31 14 -83 23 -1 43 1 15 -24 -44 -34 -38 67 -62 37 60 46 69 25 -24 44 35 -11 -38 4 -52 -1 -59 2 -47 74 28 51 24 24 65 -12 -47 -19 6 -50 -21 39 -86 37 22 30 -25 -89 51 3 59 5 13 22 47 49 37 -23 -21 12 62 -20 -50 27 -33 -16 -36 7 -43 51 -42 -9 -47 33 -28 47 59 52 -62 24 40 53 -39 -111 37 -43 17 3 21 46 28 24 -118 -105 25 -6 -13 -51 28 -14 -81 -98 -15 8 34 -4 -19 26 0 -52 61 -29 -35 -21 -60 -58 -59 -27 50 -43 -34 22 14 -16 54 40 18 18 -41 38 63 3 43 46 -50 51 41 42 -73 -18 35 97 121 -51 -14 -32 85 3 -58 -7 -9 44 -19 -41 81 10 16 36 11 -40 3 -20 -2 24 2 -3 22 49 -48 -26 60 -27 15 56 -44 32 -2 -18 -32 -47 -45 -12 -48 -42 22 -45 -4 -35 -16 23 -57 -1 -47 -22 27 -53 44 -7 -102 -9 -25 76 6 29 44 -5 -20 -8 -10 -12 -29 38 36 -17 23 -65 7 -8 -5 26 47 75 -109 -91 -2 -21 9 -74 -28 41 -63 -21 -22 116 45 -25 -12 -3 -10 -46 43 -29 -33 -32 65 -61 7 57 -65 -6 36 -66 -14 35 48 -25 -49 -24 21 -38 -13 38 36 71 52 51 -63 28 0 9 47 35 -6 13 -75 4 6 -10 30 21 27 -12 -24 -50 -11 -2 50 3 -64 8 13 -54 62 8 -16 -41 -38 -12 1 41 -20 5 51 -14 -54 -56 -8 -25 -35 42 -45 -9 -8 83 -68 18 13 77 89 42 77 -43 40 13 83 -32 36 -32 -94 8 -38 48 7 18 20 10 17 -73 -55 -33 9 -3 31 -14 51 13 -43 -74 -25 36 12 0 -51 -16 -61 -15 3 -11 55 14 -21 -52 -73 86 -17 -63 -40 34 15 -50 -6 26 -12 19 84 -30 73 64 19 76 -2 79 -24 -86 27 -9 31 -27 21 -10 -50 3 75 4 100 72 -29 -71 8 27 30 -37 -70 -53 -10 -10 -35 77 11 -70 -87 6 -41 -71 -49 -69 -2 54 106 56 -1 -34 -62 -2 83 31 -47 -95 -26 -48 -54 -60 45 50 10 -63 -31 -16 -52 -21 17 83 29 57 61 -59 37 22 49 36 68 -16 38 -5 -4 67 3 -22 26 17 -34 2 -6 32 -13 -9 -14 -63 -59 19 47 -40 -43 -30 52 5 0 -60 30 67 -26 35 -52 7 -35 -47 13 -52 -31 18 -52 127 66 44 3 84 34 0 11 6 -4 2 -37 -116 -59 67 8 49 38 -37 10 -60 -62 73 -7 -8 44 -8 71 -28 61 -21 -3 20 31 33 -2 33 -12 -12 54 50 -47 22 -62 40 -31 -7 -49 -4 6 1 34 -45 -11 -24 39 54 25 -12 78 -55 -33 -59 28 23 74 -21 29 67 13 20 7 20 5 -28 -13 42 -59 19 -14 -34 16 74 -48 -6 -38 -52 14 -39 -51 61 -22 -69 33 26 5 5 28 -18 -36 -62 64 86 50 53 12 77 27 12 -39 -71 59 9 -23 68 -15 10 51 25 -57 -8 82 -20 66 56 7 36 -63 -6 1 -38 -22 6 39 34 -37 -79 -64 17 9 38 63 0 5 -18 73 19 -3 -61 -27 30 -84 0 -15 54 -28 50 8 11 27 47 -32 21 37 -52 -15 34 20 -49 39 -27 43 -3 12 43 14 -23 58 26 6 20 -17 -30 14 -37 -40 32 -34 -8 -49 -26 16 -12 42 44 -18 25 -51 20 0 -24 45 51 25 8 41 12 49 -37 8 -26 24 -9 -43 7 48 16 -45 -38 -40 80 9 18 -2 22 -50 -99 -29 52 48 -16 -49 54 61 16 48 34 -2 -2 -31 90 51 16 -7 0 -21 -8 -26 27 75 -36 -34 89 0 62 0 56 15 41 26 -31 -23 9 3 54 -43 61 70 -18 -17 45 39 -27 -54 23 -36 -9 -94 59 -30 31 45 86 102 -3 28 -11 53 -65 29 -26 -18 -66 -71 -5 42 -60 -53 13 31 -35 29 72 29 4 -67 -127 -42 0 49 30 -1 2 76 15 33 44 -46 -85 -21 -11 54 17 -36 -17 -20 -17 -18 41 21 -18 10 -4 -34 26 9 13 38 9 -4 36 34 19 -7 -8 17 29 3 22 10 -72 52 -8 13 4 39 16 -12 20 -2 -10 -35 34 -64 -17 8 17 -40 9 -27 -49 27 -29 -9 24 -24 -20 45 -9 -13 44 -15 16 -36 -16 28 -22 -56 39 39 50 0 -54 -71 15 -33 -45 11 51 -8 -65 71 53 32 53 51 -29 -8 -20 40 -67 -43 -19 -38 -25 -4 -9 56 3 -54 42 20 -42 -19 -35 2 35 -41 12 -18 17 -36 -33 -30 25 -33 -19 30 -24 -25 26 36 36 -13 11 -25 28 -82 -69 -62 -33 -10 -72 -10 -24 36 -27 86 57 41 -14 5 25 12 53 -1 40 -8 14 -8 -17 -9 -47 50 56 -38 30 -13 -52 32 19 -44 -49 -11 39 25 41 -49 52 46 13 24 -1 -37 -12 49 39 13 -22 -10 -25 -9 -12 65 7 -85 -30 -24 14 61 23 44 61 53 -29 74 10 -41 -63 42 46 5 -17 -15 23 5 -52 72 -4 -40 -74 -44 59 8 55 -46 14 49 65 -7 24 30 12 -12 23 -34 44 -1 45 -32 -14 57 -54 70 35 23 11 23 -14 -29 -33 -8 15 -11 -2 -31 -7 18 -37 34 48 -2 32 32 41 15 -1 34 -18 14 34 35 -13 -31 -12 -31 2 -39 -29 0 32 2 32 38 20 29 -13 9 -8 51 38 -43 39 18 -16 -30 -38 -6 -4 -54 -2 43 36 41 31 42 65 -37 -3 22 62 32 -105 21 -61 53 15 -90 -20 9 -67 30 -19 -4 -10 -105 1 40 29 1 -16 75 10 65 -20 40 -4 13 7 -37 1 -33 -12 -14 60 -36 -38 100 37 5 -17 -26 -62 -62 -32 4 40 -19 -3 40 -12 42 -28 -45 2 14 111 -60 -39 1 39 9 40 52 43 -57 4 44 44 -36 64 2 -15 27 15 42 -21 -39 19 -20 6 -60 -45 -29 -31 -12 -73 -62 -32 -61 -128 -31 -58 -4 -40 40 -5 8 49 51 -33 19 -21 8 36 40 -13 6 -2 59 24 -5 35 -18 -37 -50 -62 -52 11 -15 -25 28 -15 -52 16 24 -29 37 -32 -18 -29 16 49 23 -38 -21 9 19 -32 33 -10 80 -6 -41 -42 3 -38 -42 20 -10 -16 18 19 42 -26 15 40 -47 50 11 18 42 38 47 7 5 29 30 -53 -36 -14 2 0 17 -37 24 -80 7 -31 -27 71 -70 50 49 51 -23 5 90 28 -57 -93 -6 -37 6 -20 -13 23 53 -41 -32 41 -26 29 -5 -15 32 38 20 3 -38 -22 -4 34 23 -21 36 48 30 2 47 -30 -9 -1 -18 -7 42 91 -11 -46 32 -20 9 -58 32 14 30 -41 61 5 26 -69 -28 33 21 -39 -25 -48 28 24 38 -34 -33 2 -17 9 -4 -7 -11 -44 -30 24 38 17 36 10 -1 43 17 -46 -15 8 -38 31 7 43 -29 19 10 21 -19 -23 25 -80 -31 -13 18 -52 -11 19 -4 11 -47 -16 -5 -27 -21 13 3 -48 -7 1 73 -2 1 54 90 -72 -19 16 6 21 -12 54 16 -18 15 -26 41 33 -37 19 -14 31 -8 46 -24 -24 29 -32 35 -18 -71 -20 -74 11 -7 25 -55 -51 -44 35 24 48 8 18 34 -42 -28 2 -28 34 -3 -1 -22 2 19 27 11 24 45 57 -34 -27 16 -17 56 23 -5 -42 46 24 8 -2 45 -3 -35 15 -1 29 3 20 6 34 18 -30 34 4 -46 -25 -26 -41 43 42 27 -15 8 14 58 34 127 -9 -45 -29 -22 93 3 -19 10 41 51 45 6 -54 -61 -3 110 55 26 15 11 -46 -8 -5 -12 11 -35 13 9 -24 12 47 27 31 52 59 84 88 12 -13 6 -16 37 -36 -53 -11 14 -31 6 -71 40 -46 -15 -34 -38 50 8 -16 -26 53 70 -28 11 48 -24 13 -38 9 18 33 -69 -32 50 83 63 0 17 -35 -51 5 29 6 -11 27 8 28 -9 -49 -7 -33 -4 -6 39 -6 -60 -21 33 1 11 11 -13 -43 -2 -29 28 -19 -26 43 9 -10 -24 -19 -47 14 -3 -39 6 -2 -23 -9 -47 -7 -4 5 13 -12 -25 -36 -26 112 13 -16 -32 -24 50 0 34 13 -61 21 -22 68 -28 22 20 -45 36 -51 1 -46 37 -6 -17 38 -31 57 37 -32 13 40 -45 -35 41 -9 -21 41 -4 -52 23 -4 16 35 30 -4 25 62 -37 -26 -18 37 12 40 -25 80 68 -9 5 21 -40 -37 22 -21 -25 -29 -34 -14 46 13 34 -26 45 8 -29 37 -19 14 14 42 9 -42 -48 -28 -26 -13 8 -27 -35 -20 1 27 -42 -25 -55 33 -39 44 -15 -59 -20 31 83 14 -16 -62 29 -13 71 -2 18 38 36 14 -49 -57 20 -61 30 -30 14 41 24 27 23 9 -40 26 -8 -27 -35 -19 1 27 37 11 -19 24 19 13 -10 -8 -16 -9 -4 -6 -56 -30 -43 31 14 21 -55 -14 -29 3 0 57 -6 -50 -23 37 10 63 5 -23 -6 -30 -38 2 7 6 10 6 -7 -43 -19 48 41 -70 -17 -5 24 0 -8 -38 36 32 -23 -57 -49 -8 -9 60 -33 -69 81 -84 39 -125 34 -65 -120 -17 41 -83 102 95 62 -42 -30 24 -109 -63 78 -8 64 -118 -128 -121 -46 -104 -17 103 -27 -12 57 33 -106 97 -115 -21 95 -78 72 -5 -101 -113 -58 -40 46 -46 86 43 81 -29 -123 -113 67 -122 -74 29 -110 -55 -62 94 121 -122 -67 -100 46 -60 104 30 43 36 63 -45 96 -73 -16 -40 -119 -35 -51 -103 -111 -24 -7 9 6 -98 -94 -86 33 126 -64 -46 18 114 -82 10 68 25 12 -110 109 -63 -85 -98 83 2 -8 -90 -79 77 -75 -9 50 81 98 9 -19 92 -50 -73 -82 -42 -40 -50 86 -124 108 -89 -15 -108 -59 -96 80 43 -98 123 -97 -75 -7 36 75 -12 -10 55 29 81 125 119 -81 98 -47 -36 91 -1 119 -41 83 -87 93 46 -65 -127 -87 112 21 -43 14 -15 -20 -84 -109 80 -71 -49 126 -127 24 -64 85 65 11 21 13 50 34 -121 -86 29 -87 -78 -17 -116 37 11 13 -33 11 -39 -91 74 115 25 -69 -26 -77 -7 -92 -34 56 51 26 -46 94 -37 -18 15 98 94 -20 19 12 94 -110 -87 5 82 -71 109 -78 -94 -47 -18 -18 55 -82 -51 90 -127 -102 -106 78 75 -17 69 122 109 -78 14 -23 -34 -49 93 -11 -14 -106 31 -23 -7 -116 113 102 16 3 38 -12 -8 -90 -40 -45 42 -80 -120 65 -101 57 -101 95 115 -26 94 -24 10 -90 -37 -122 54 64 -43 96 85 -56 -15 61 5 -115 27 92 71 63 111 -6 108 12 110 -35 -123 43 -76 -29 60 -74 -57 -43 -20 27 51 -56 -108 -72 -107 75 64 -7 14 106 -30 -106 52 100 -118 -88 109 1 1 105 -107 -20 -50 -122 -38 -42 115 71 -12 -79 79 -108 -11 39 -77 -93 -25 -117 18 -121 17 109 64 -67 -96 -79 -83 -12 -71 -45 -26 6 125 -2 -59 -122 -54 124 39 77 -48 -18 -96 83 125 -9 -33 -6 58 97 -79 30 -18 31 -82 -82 24 63 0 -94 -125 68 53 -94 -35 56 49 80 -37 -62 -49 51 51 -85 -94 -63 -39 -5 84 102 -35 -77 18 -14 -47 3 103 28 89 -49 -3 76 -67 -63 0 15 104 -30 -8 -65 -36 -15 40 19 71 2 -6 17 5 26 -74 37 64 -75 91 -40 96 70 2 -94 19 68 41 104 42 22 56 91 22 -87 32 -64 -44 -62 63 88 -35 -87 86 -39 -45 98 105 7 -56 -102 48 110 -27 -61 79 -49 44 -31 42 -128 -23 -11 -86 4 -116 -22 -86 72 25 -32 -21 80 96 16 -50 -6 112 -4 -74 14 73 106 -31 -74 -81 -52 -40 -88 -82 -113 -19 -104 -101 -77 72 -106 8 -62 -52 -31 -65 104 -68 -42 90 93 107 62 -51 84 101 -52 -2 -16 32 -59 -100 40 43 87 -22 55 -49 24 -108 -2 -34 -102 77 -50 43 71 -12 -84 38 3 1 45 79 4 -55 66 47 -72 11 99 17 95 2 43 96 -69 12 -3 -41 -72 43 19 -91 89 54 -7 72 -30 69 33 -48 83 37 103 8 -72 -1 -93 69 108 15 -1 -9 100 -65 101 21 -82 74 -3 -79 70 -76 -104 -63 -31 56 -76 -21 55 54 104 23 5 67 91 -19 -21 -105 96 18 -39 -23 71 -40 -26 -104 -95 -24 85 4 -32 41 -105 113 32 -37 -59 -93 69 107 -55 -33 -75 80 -65 55 24 -97 -57 97 -21 60 80 -57 94 -44 52 11 11 85 42 74 83 79 88 107 52 -58 -49 -25 -84 79 -62 -92 48 -67 -63 57 -106 88 -54 45 14 -73 -96 -69 56 -80 -37 31 -13 -13 73 85 84 33 19 41 48 -87 91 67 -6 -61 -64 -80 50 56 -39 48 -85 75 -40 -34 48 42 -88 -68 13 -11 -33 -68 58 21 -10 1 -8 -43 -47 74 -71 -14 104 -8 -41 -31 78 60 20 -115 -60 115 78 76 -17 -94 26 -1 -37 101 -17 -81 -80 -33 10 -32 -39 -12 12 -77 -67 59 -52 -38 69 -30 -78 -92 -78 9 27 -36 11 -56 -66 90 82 -59 67 7 -62 98 103 7 5 33 -67 -27 54 -61 9 -62 28 2 27 -3 -82 -47 -49 -14 -45 63 50 -36 24 -38 -16 69 -41 -63 57 17 -24 -11 -1 1 -71 71 12 -81 -76 -53 6 14 -60 -59 -59 60 -52 7 48 6 59 25 78 -1 45 -23 -8 -62 -70 -46 33 46 -11 -28 -55 38 -43 -3 -46 -29 69 64 -7 -21 -43 106 19 -10 -81 18 94 -50 -14 8 21 93 86 -42 -62 -90 10 57 3 -72 -44 16 -24 11 -69 -41 73 48 52 1 -26 54 -18 -50 114 -48 99 -27 -70 -19 15 -20 -16 -22 -23 87 -54 -14 -20 33 30 111 42 4 18 48 127 69 10 2 -25 -4 15 -54 7 -44 -51 -1 17 27 48 -40 -18 126 -7 -33 -21 -49 -22 -35 13 -72 -45 34 23 25 -2 -55 77 14 71 40 87 0 -47 -74 28 9 75 76 -26 -43 33 52 5 48 38 -63 -18 -1 -37 12 -25 71 -10 -28 -3 -21 75 -41 1 -71 -30 37 -29 96 31 -47 -79 71 34 91 -7 -36 -78 44 28 8 -64 17 65 10 -60 -60 23 116 77 -59 14 23 -41 47 55 -26 35 20 -55 33 -5 -9 -60 -27 35 67 -19 74 -73 18 -14 57 -30 -28 -5 -49 -58 -53 -64 14 -17 58 -36 -24 -58 -24 68 -55 59 -41 -31 -73 -53 53 -16 12 110 -53 16 40 -62 -56 36 0 -54 -18 -51 -36 56 64 74 -35 64 -48 58 -78 45 -13 -35 -8 47 62 73 -69 -43 36 -40 -82 14 76 -58 23 36 32 64 23 -43 -44 55 -2 4 77 82 -38 -15 4 61 -93 37 59 -61 14 -52 51 42 60 -36 -16 50 10 -64 64 13 -35 21 -9 3 -47 -68 -24 -37 22 -56 -64 -73 -31 28 13 -36 -11 -21 51 -68 58 -1 59 30 55 -4 23 45 98 14 -15 79 4 42 -11 -97 52 37 75 77 -19 -64 23 -11 51 63 -18 51 61 -33 -30 57 8 42 35 84 -18 51 -34 6 -28 -79 -1 116 103 4 96 -66 -49 25 -40 16 -2 -41 -91 -22 -126 76 70 0 37 -45 -15 51 0 -87 112 -24 116 -32 48 85 -93 -18 -3 31 96 35 40 104 -78 -44 56 -112 124 -110 22 60 -80 -95 79 -32 -52 11 -111 -2 20 -56 -114 72 33 -40 -103 84 -58 -3 -70 75 -10 -25 -119 -111 78 108 111 -10 -38 98 -103 112 -32 -39 63 -49 -30 100 79 51 18 33 -82 -95 -124 -88 -109 -63 -68 -47 -16 31 -51 -118 8 48 -10 -27 81 49 105 -125 -41 -103 -78 -24 13 -96 81 -67 18 -108 -58 -79 -94 -53 63 0 70 -31 -99 -110 -53 -96 3 73 -91 -44 -52 56 -109 -124 -102 59 45 105 98 -7 -87 -38 23 78 32 15 34 121 10 9 117 58 -66 -87 65 -29 -23 55 69 25 -115 9 -84 -63 113 21 73 -21 -27 -4 90 57 116 12 70 -87 -82 58 114 -66 -53 14 105 41 -86 26 81 55 -58 81 -87 38 48 -48 -14 49 -30 82 96 118 -69 -96 -45 4 94 86 -106 75 127 97 -72 -112 -105 60 34 101 83 121 80 52 -42 86 -20 -105 64 17 -84 70 -89 75 -54 -26 -109 48 -70 22 65 74 -70 82 -61 -5 0 43 55 119 2 -21 -48 -2 -27 -59 13 -49 -122 26 -123 -34 -47 57 30 -118 -29 67 -61 -103 -30 -36 104 36 -14 -105 85 -28 -60 105 105 -64 41 17 36 29 10 -9 -54 -71 -68 -98 -4 77 73 0 78 -73 117 -78 -56 55 -41 -25 -64 -56 43 -17 -39 -57 86 108 113 27 7 47 -125 65 103 -15 15 -97 23 -64 -11 78 -10 -78 30 -118 -47 112 50 71 12 109 49 -72 -115 79 -30 -53 -98 67 -1 88 -10 115 -117 -7 71 73 -59 -118 45 55 114 -30 27 113 31 -100 73 64 23 82 -26 51 -21 36 -104 26 -55 105 -78 61 -69 115 65 30 -64 -88 35 107 -57 16 -92 66 77 -8 -82 30 12 20 -22 -25 104 80 -18 -98 -90 15 102 -15 105 93 -93 100 95 -86 -86 -96 -9 70 69 75 -24 -16 -18 -68 110 -56 121 86 95 -90 54 -117 29 -21 -40 93 -49 -57 73 22 -88 28 68 48 -59 63 -82 78 -60 63 -69 -61 17 49 101 -78 -93 -55 32 -68 -18 -34 66 80 88 -11 -22 80 -9 34 -76 -11 117 -74 9 116 74 -61 57 -86 31 -125 -53 -23 -33 12 98 -101 -1 19 -36 -52 -75 38 122 -29 58 -114 -73 20 -90 90 -11 0 -71 -120 -84 10 -56 -121 12 123 -96 -87 -88 120 116 -36 -46 107 -36 112 1 -102 60 -66 -105 68 -90 -93 23 -23 -65 -110 -4 85 62 24 98 88 -39 55 -27 127 46 -106 110 -12 -14 -55 -90 -96 28 54 -107 -28 -27 40 -107 -18 -37 -73 -38 49 -57 -76 -114 38 -62 -6 -112 33 74 -81 17 -24 -123 -7 -55 81 28 100 1 97 -105 -33 75 -80 -104 100 -42 -29 14 -54 5 31 72 79 108 37 60 101 -54 111 107 -66 -63 67 -117 77 119 -91 -19 -82 -14 119 -73 -86 56 98 90 98 -71 -101 57 -91 -38 -76 34 -94 -42 48 4 111 37 121 -43 15 60 107 -55 -112 -116 -104 -50 86 -6 -91 -97 45 -119 20 -73 -70 -100 -86 -104 -30 10 -115 -29 -84 -15 -118 -24 3 19 -24 -40 -59 -80 11 -81 -91 60 -97 53 -5 52 87 112 40 -83 113 -108 121 -121 41 118 47 74 41 53 -89 96 120 15 93 87 -6 51 -11 -87 81 89 -33 -36 -56 -114 44 51 -10 -11 14 -24 63 69 26 58 59 21 -58 39 -50 122 25 5 -61 -117 -108 0 0 -109 49 64 63 41 81 -31 -24 15 -49 87 41 -30 40 -74 -87 101 -107 41 -111 -8 -70 -90 -109 91 94 -92 94 -74 -35 -76 -76 63 86 104 -46 -44 67 -5 38 91 68 100 112 -67 -50 -117 -75 -18 40 69 83 100 -73 -117 73 -32 15 -107 45 110 71 81 0 57 63 97 62 -63 59 -124 -106 -32 87 -17 -47 -59 11 37 -30 -16 58 -5 91 -33 18 2 67 72 -46 13 -16 -34 34 -26 -88 -62 49 43 -50 16 51 57 -22 -35 3 -25 -27 -63 45 10 79 -23 -11 -7 -15 54 -52 15 -72 7 48 59 0 -31 17 59 22 -39 12 28 30 -22 37 -19 36 48 26 62 -1 49 -58 -49 50 16 -54 -15 -84 -88 -74 -13 -21 12 -13 5 66 -51 8 126 -33 9 15 6 70 42 -35 78 -22 -63 -98 -5 -40 -59 -62 -12 57 -21 44 66 -1 -76 -77 19 14 -28 -51 57 -9 -43 -34 92 73 2 45 -12 31 59 -55 15 33 -49 -37 8 118 -60 -91 -95 100 98 19 -67 65 63 11 -14 17 95 49 -43 26 20 -112 -9 -25 -44 7 11 -82 -111 33 15 -55 -16 -82 32 89 -24 -7 -6 -53 34 23 76 34 47 -67 -80 -91 11 -71 -1 49 -85 5 -30 105 62 11 -4 -41 9 44 -15 49 -5 -14 29 -9 -48 -25 56 -18 66 56 9 -45 40 20 9 -3 -81 -13 56 1 17 -47 -9 -35 -1 34 -22 5 26 -54 -75 13 60 20 24 11 -70 -32 46 -20 -1 -59 -49 -53 50 29 -41 43 3 30 -32 -32 28 -30 52 21 -50 19 -9 44 43 20 -14 17 -3 -9 -37 23 86 52 37 76 59 24 48 85 71 -92 -14 -1 36 -63 58 23 -39 25 -62 -5 -37 27 18 -50 -11 -52 -20 -5 -46 54 -44 14 -16 37 -44 -22 -1 -15 48 29 26 -21 59 -20 18 -51 38 -29 -27 -31 65 96 31 -85 50 42 -21 -2 89 -16 -15 23 106 -39 23 6 55 -1 27 -39 71 19 20 -18 -16 -28 -32 45 -11 40 -63 31 -76 -72 -61 -32 -25 11 19 -54 -65 -27 71 43 35 -8 -33 -82 7 -36 -6 -53 -48 -61 29 -36 70 91 -24 60 -41 58 127 -8 -20 20 43 -40 2 -26 -5 -58 24 52 67 13 -23 -97 1 -18 49 93 -44 -37 -14 -1 124 51 -23 -18 -12 71 5 -20 11 19 74 7 -56 -50 -10 -57 30 14 -39 19 16 68 41 -54 32 82 16 14 0 -31 -24 -19 -36 -8 10 44 -44 -10 42 32 -4 80 -22 -39 18 -57 -58 -13 8 -43 -27 41 -18 -13 -24 38 32 26 -49 -14 -20 46 -42 -63 54 -38 6 50 29 44 38 22 25 62 -35 -53 27 -2 -53 54 104 54 -21 33 4 55 82 32 -24 0 -27 -29 -43 -24 -22 67 -11 -71 -84 44 15 114 21 -21 -40 67 26 -15 -5 1 -4 -72 -116 -6 -26 -38 -96 -34 -22 68 127 -17 -18 -33 36 -65 43 -20 -4 4 -24 6 -22 -8 -35 -8 59 -45 -5 22 -30 67 -50 -90 29 111 107 -43 -65 53 60 13 -28 12 -45 -12 11 110 39 38 34 82 -2 4 -18 -37 -88 -17 -35 -30 13 -41 -40 7 -31 22 38 97 -15 44 -10 75 101 88 -31 92 79 -30 53 -74 -92 -98 -10 -41 4 14 -47 18 -32 -1 41 -15 96 44 78 14 -49 -20 -37 15 -14 -93 21 42 -52 -23 -56 82 -53 78 3 30 -46 5 28 -67 -18 30 49 22 22 -57 -65 6 35 -41 -56 -63 -36 -34 20 -17 -32 17 11 -48 25 10 -44 12 -25 -11 -50 13 -5 57 5 64 -23 -10 39 -58 -72 84 -71 -70 -68 0 -10 59 27 -22 13 -12 -19 15 35 5 32 -10 12 -32 6 -27 -55 14 16 -42 14 -19 45 -48 46 16 -42 -26 -7 45 -24 -12 57 66 -4 61 -51 45 -47 -14 -38 61 37 -6 -28 51 -27 -11 52 56 19 22 0 3 -41 -14 36 -45 -8 -49 -17 17 -17 -40 -30 1 -36 3 48 22 -19 -46 -55 76 -35 -47 16 -83 36 38 -35 -50 8 13 30 -28 9 -82 36 109 -27 11 0 13 49 -36 36 -111 -15 -84 98 -75 -94 -42 3 3 45 60 -1 39 56 -51 61 40 -49 61 3 86 45 19 -2 -43 -103 -35 -27 84 42 -38 -2 -95 -68 -9 90 7 21 29 10 -5 40 104 -36 -9 27 13 -19 -71 0 -60 45 -74 -19 -32 -74 25 104 15 31 -30 56 40 1 1 60 21 13 5 4 17 -22 -3 4 -20 48 -6 -42 50 0 -58 56 -50 -58 53 -20 -18 -19 64 61 -52 -2 44 65 -60 -54 -17 19 -6 -52 39 -74 -20 -17 24 -32 -29 63 71 -20 37 -44 58 -45 -71 -10 -43 16 74 -54 -31 40 47 93 26 10 -23 10 32 15 3 -72 54 -89 15 24 -17 -24 -57 -6 -10 32 -29 -76 -16 0 -30 36 -66 -54 37 -10 63 26 52 -44 72 -63 -53 -36 -8 -28 36 68 20 -58 -128 -36 3 -17 -73 -27 -63 77 -7 35 0 -21 10 25 -57 -28 101 15 -82 -86 42 78 33 -61 21 123 15 -15 66 -23 -86 36 64 36 0 -6 -57 -41 40 19 -10 -14 59 55 26 -11 -88 45 32 -19 15 1 28 -43 28 -70 -45 -65 -59 -41 76 -36 24 -31 45 -45 -41 22 -26 13 -54 38 -74 -8 -50 -71 20 51 -21 37 -40 1 -18 -61 63 8 -51 35 -31 -28 45 -81 -66 -60 -39 -74 30 58 -1 53 42 62 -35 54 60 64 76 61 -32 45 -2 -40 8 -29 4 -15 19 8 10 17 30 -67 -10 62 46 69 -11 27 -82 -67 -33 42 -5 13 42 54 10 -41 22 -44 53 -48 -25 54 82 72 8 -53 36 -60 -46 -13 45 65 44 9 -19 28 -34 -49 -23 -58 46 -47 -4 -10 -5 61 8 57 -37 -54 17 38 46 56 84 -1 46 19 -9 26 11 -58 -26 14 73 -29 -24 17 -71 2 -52 39 5 -17 -19 50 44 42 26 -31 44 7 14 -42 73 66 -30 -74 76 26 56 -60 40 31 51 -27 -29 49 59 -32 15 49 -3 -4 90 -56 -13 78 25 57 42 -76 -65 1 29 -25 30 -56 3 50 44 -28 32 -50 -41 -36 -10 72 47 93 -12 49 -44 -18 45 -32 -67 41 -21 35 54 -61 9 46 -8 24 55 -66 -18 3 -2 -22 6 26 -33 -43 9 35 -40 29 -6 -23 -13 27 24 -11 22 46 79 32 10 -48 -28 73 81 -17 -35 72 -10 -22 -56 -16 52 -38 -51 -50 38 59 59 -16 55 44 -40 21 -45 -62 -33 -58 2 44 6 33 -12 57 -63 -71 24 65 -59 63 -21 -37 52 -29 60 -16 -8 19 -12 -26 27 -60 16 19 7 -41 40 73 75 -6 -66 -22 -33 -40 -90 -108 -103 -42 -59 -63 -76 -48 -12 -38 55 -56 -3 49 12 63 66 -34 52 51 59 56 19 -56 -61 -5 -70 42 -59 -8 -59 -73 36 56 14 53 44 78 -12 -87 41 -1 38 29 14 -91 56 -25 -35 54 -43 -8 -76 26 15 46 -28 -58 66 28 -8 -66 77 80 -58 -3 -24 -9 -16 -1 -31 87 23 91 74 -54 -16 -69 -104 -66 -92 -36 26 58 45 10 69 16 35 2 7 -1 0 27 -27 75 -31 -30 63 -17 -77 -88 -67 5 -7 -61 -36 2 -31 87 46 3 20 62 6 32 88 -12 -23 -28 13 -37 -54 -33 -32 -21 66 -67 -44 58 13 -13 75 10 59 -1 48 -39 40 -63 -73 41 32 42 13 52 -21 -20 -12 36 62 39 20 4 42 -22 9 35 -45 -25 -49 26 57 -16 20 -5 -35 79 -19 10 -13 28 46 -22 -23 -87 -53 -27 -45 -46 1 -61 92 79 127 77 60 67 -48 -30 109 110 30 -32 55 -50 55 -55 28 -51 62 39 -56 -4 -1 34 6 54 16 -26 -39 -30 36 5 31 36 25 0 61 -38 26 -39 -76 -3 39 -9 44 -29 -82 20 4 -91 61 -32 -45 18 -64 -12 78 17 54 -28 -30 59 63 -18 -1 42 -52 -46 -30 15 70 -12 78 11 6 -9 -25 -45 25 56 -12 3 14 -56 -47 -26 -52 30 -48 30 -4 45 9 39 -65 59 -12 -52 -82 -24 -48 12 -24 41 21 98 8 -15 -39 12 -39 -29 49 -44 51 65 111 -14 85 -16 14 -35 3 41 -14 26 -48 -12 -83 59 18 24 74 97 -17 104 38 61 -116 -33 -13 88 -120 73 -30 47 -125 24 41 -44 58 -27 27 62 85 7 -11 -78 -106 109 -109 -104 -80 24 -10 -3 71 -41 -123 33 7 29 111 -119 -25 -87 105 90 35 24 -95 -21 -72 -97 -71 91 -69 42 25 42 -112 112 -44 -5 -125 -100 -84 124 88 -116 85 79 -12 83 115 35 4 -32 73 57 101 -6 116 78 37 -8 -123 119 108 -63 -63 -3 24 -93 -16 83 -91 -51 -66 -107 -53 -119 70 104 -77 90 -83 -44 31 -60 121 24 -100 -12 112 -15 -73 58 70 -107 3 -69 67 89 26 83 26 -119 -86 115 101 -51 110 -93 -32 -44 52 -107 15 103 -49 -76 115 0 63 96 -63 100 15 46 36 48 -122 14 35 -84 -49 -79 -34 -30 -70 -57 -31 87 27 68 -51 -65 70 116 -28 99 -28 -108 -27 -44 -45 17 37 56 -14 59 70 -47 102 74 86 -41 -85 -107 -93 59 83 51 -89 -77 31 -25 -13 -35 -32 95 -107 30 36 -117 12 30 26 43 -44 47 4 119 31 53 98 68 5 -69 85 -61 -107 77 69 -55 -11 -5 31 14 -26 -14 -24 -77 87 -36 83 4 -114 -89 -36 -98 -110 50 17 -6 94 63 34 87 36 10 40 -97 -94 49 73 -56 -25 -113 -1 -128 -88 -11 -67 -20 -116 -59 -63 0 -122 -14 -92 82 -3 92 55 61 43 103 -126 -21 -36 103 -103 32 101 -79 44 -54 -62 -122 92 -75 -74 -84 -23 124 109 -2 17 35 102 -89 -18 42 -32 -100 66 -73 -46 -28 63 -101 -54 -11 48 89 -47 -2 30 -75 -103 36 -1 -5 -58 40 -116 119 53 -52 45 112 19 -102 71 73 -51 105 -1 -66 -111 87 -15 -123 10 -46 -112 -119 85 -112 -65 -100 15 113 -58 -64 115 -31 87 49 -26 81 35 48 43 -11 20 85 -29 -12 -57 -50 97 -120 60 -93 49 -40 -119 13 16 -72 123 -1 25 20 44 56 22 -47 10 -74 -30 2 5 12 -39 -70 94 -117 -57 41 -97 -38 -24 45 -89 -123 -68 20 52 -73 -79 83 44 -44 46 46 -36 -65 -9 49 120 19 -27 -50 -50 -55 -116 66 84 9 -82 -84 -116 -49 2 1 -36 1 0 106 18 42 53 88 14 16 95 -108 120 -122 -89 31 7 -38 -10 -5 -17 -59 119 39 -22 -13 -51 98 -70 12 85 61 -110 -15 88 92 -21 -23 103 54 -112 -116 115 -80 52 -110 74 54 -75 95 26 63 -98 -41 -20 -105 -101 39 -92 59 26 93 0 -82 -17 47 -17 95 -86 42 67 -117 3 44 16 98 8 -89 29 86 26 58 74 -30 5 -103 112 26 -74 123 -46 83 108 19 28 -13 -6 12 -44 -102 -65 -102 -55 -78 -112 -13 0 -57 -79 -118 87 67 7 -76 110 -121 40 76 -102 -84 -35 -109 -71 30 64 117 -48 69 -122 -68 108 -1 104 -66 97 29 -92 -101 -84 104 28 27 23 64 -124 116 -64 -92 108 -81 -99 -121 -69 -53 37 13 -78 68 116 80 97 -119 107 54 -86 8 27 -83 -111 -121 -102 -72 84 28 -76 -122 120 42 91 4 -94 29 8 -69 7 0 -120 92 -94 31 -114 -79 -86 32 -35 14 -22 -63 64 5 84 42 -27 -29 60 86 5 -45 17 53 -55 -44 29 -2 21 -5 118 -27 -68 -81 -23 46 66 -14 -17 -118 62 120 -37 -100 -60 90 1 -51 -60 -86 90 -49 85 -101 -76 -14 -81 -57 116 18 59 120 -84 -69 13 78 -109 86 19 122 94 120 85 -66 -57 -39 37 -36 -88 30 74 101 -109 -65 -53 13 -31 -69 -95 -91 -57 -56 119 28 -50 0 57 -85 -70 -125 72 -32 101 115 -29 -18 23 27 0 -66 68 -66 -83 24 -75 -112 -117 -60 27 -6 109 -9 5 -50 44 85 -21 -88 122 -22 -67 30 112 -115 27 -10 -75 100 -92 22 -75 -29 97 -4 48 -65 105 -128 81 -84 35 59 99 99 -117 33 -124 -24 18 -112 58 108 23 106 -24 -15 -37 74 44 -103 -67 -100 2 66 110 5 -36 13 14 64 96 40 -40 -89 75 -7 70 90 -7 -50 -26 85 34 -48 -16 43 46 -49 -2 22 36 40 -2 -4 51 42 28 -81 -22 11 -8 -39 -49 -23 23 -28 -61 42 80 -35 12 -21 74 -1 49 -16 0 -28 20 62 75 1 -70 35 58 -45 -43 34 -55 64 33 -41 -27 67 -48 56 -41 -7 -30 -25 -45 -33 63 29 49 7 47 83 28 60 18 -71 9 -38 -41 8 -86 -7 60 37 43 -60 72 -15 10 46 73 -23 89 -6 71 37 -34 -67 64 -95 -56 -106 -77 6 -32 -34 23 63 7 18 17 -63 -38 -9 -10 -9 66 66 42 112 -9 -42 -36 59 -25 -43 -3 -5 -41 -38 -98 -65 -23 -32 0 -44 -9 7 0 -46 53 -30 -5 49 94 127 29 32 10 -55 76 48 35 -29 30 23 -29 18 39 -35 -51 45 59 -52 -3 78 83 74 -58 34 -13 92 59 74 -64 17 39 -66 -51 -60 -81 65 -21 40 -14 -42 79 20 18 6 40 -17 -56 91 47 -52 -12 21 -16 -73 -67 -8 64 -102 -44 70 -29 21 -53 46 39 -47 -64 -63 -49 -24 53 -51 66 26 -25 -67 -48 76 -17 46 -28 14 -30 -33 -8 -55 77 17 35 -2 -74 -10 32 18 4 38 -47 -52 108 47 47 78 32 -80 21 -61 -55 -55 -40 24 -62 31 -13 42 57 -5 6 26 -50 -23 76 51 5 -55 -40 70 -18 7 35 70 60 39 -12 73 -25 -56 -19 68 30 -73 -47 -65 -52 16 -45 34 37 18 33 -21 45 -31 -7 39 36 17 -24 19 36 -51 33 3 -8 -77 -33 73 80 24 -62 79 -32 -44 -55 35 38 23 22 36 61 44 40 -41 2 -74 -1 -53 -17 -1 29 35 9 -59 -81 43 12 28 15 -33 -16 2 -11 -39 -49 -14 -65 33 -14 0 -96 -8 -82 -70 -44 -34 -28 -74 -66 27 33 35 36 -41 75 -25 75 -7 -3 3 -5 54 33 -48 -33 -83 -49 21 21 -40 -14 60 -61 -21 -32 -23 21 -5 44 110 -20 -21 -4 92 -49 -7 -57 -45 108 53 -1 -127 -6 11 -9 -11 -100 -91 -59 -87 88 -108 61 -110 77 82 54 -37 10 55 -122 -35 -120 -43 -52 -16 118 -7 51 -49 15 -71 52 116 -17 -106 -94 108 -44 126 62 -119 -18 -79 -83 -81 80 -26 -22 -29 -119 3 11 65 76 6 -119 0 103 -3 -27 -46 -102 -96 51 -68 -50 67 30 17 -49 -48 -108 -126 -111 1 -73 -67 6 -50 -42 -67 -62 -51 -38 70 9 121 81 8 -50 -27 -92 125 -18 18 -86 -92 -91 0 76 -106 119 99 11 -12 0 -39 -48 61 92 -2 16 33 9 -43 -56 115 12 -80 -108 -109 105 102 100 -41 2 62 -116 -14 -69 -74 -81 -14 -8 -5 -120 121 -115 3 69 107 24 38 118 72 -5 -1 115 -119 -21 -2 -65 -109 -122 -26 -55 -120 -56 -4 -119 104 -119 14 92 -121 1 -56 -102 -101 -57 62 47 -128 36 -33 29 -25 -117 -103 58 -52 -68 22 -17 39 -16 -79 77 -11 78 -90 -1 71 -51 -38 -126 -93 49 -25 79 56 32 24 -22 -36 34 -17 -11 -73 98 18 -48 20 -62 -124 7 -40 -11 -50 7 20 117 -52 -127 -50 -41 5 40 85 -48 67 21 -39 84 -94 -125 17 65 -75 34 40 -48 1 83 109 14 43 111 4 107 5 112 -112 62 35 -19 111 35 -61 -11 25 -47 -30 -79 -45 8 -98 6 -65 -39 -12 78 123 -93 -120 127 -101 121 -3 -26 -120 -117 110 18 95 38 21 5 -25 -88 21 88 7 35 -58 27 89 79 26 -53 -89 -72 -115 -127 121 59 -25 -77 104 -63 30 37 -11 -95 -51 -43 -5 13 38 -99 63 -95 -5 92 -2 -101 77 5 -110 41 104 86 23 101 25 -30 0 -81 -52 71 -88 68 -12 -114 -91 -18 3 45 -68 118 -124 -122 -101 -2 -9 -121 89 -24 71 49 -49 98 89 109 -85 -87 104 115 -40 -48 99 101 -47 -19 96 36 -63 10 47 -110 -7 111 2 -10 -103 62 -88 -58 71 -14 -58 -50 75 68 79 -76 -36 -11 -33 -60 84 62 58 -31 -21 -74 60 9 -66 10 -25 71 -82 -20 68 50 70 -35 48 -82 21 -37 -5 34 22 -61 13 16 -80 45 80 16 -47 -5 -67 46 2 -64 3 -55 -89 -102 15 -21 4 -76 -28 -35 -16 -9 61 -66 58 64 48 24 33 3 -32 11 0 -65 55 18 -93 -23 -25 -30 -70 44 59 -7 -25 -24 -33 69 -33 -44 96 57 30 41 -7 -51 -9 63 65 -42 -47 55 33 -53 93 68 121 -23 78 -37 32 -92 32 23 -90 -56 -30 5 -91 -93 -49 -24 125 35 23 88 -8 -7 38 49 -37 10 -63 73 -43 -20 -1 -29 -82 -31 -109 -127 -71 -17 14 10 31 61 71 -43 -6 -105 -73 -47 -27 45 -51 -4 83 83 4 54 43 79 -72 127 120 46 0 28 115 82 73 18 -50 63 -8 -17 0 -62 -83 -78 -99 -73 -30 14 16 -48 82 -37 69 12 57 -38 -75 33 -65 64 31 -31 -8 103 -78 60 52 36 70 47 27 -6 14 -49 -107 -8 48 -59 -71 41 45 -27 -65 56 99 94 72 22 -55 -75 -74 23 -41 -39 -45 -7 40 -8 -64 16 -41 33 79 -4 21 67 22 -29 -16 -17 -64 -15 73 103 -37 23 -20 39 26 -40 -44 68 -111 -19 51 -48 65 -32 -35 -102 34 8 -57 2 -14 60 -48 -8 -48 24 5 -4 0 -8 66 30 -36 19 90 45 -74 -45 1 -19 49 -9 25 7 -56 -3 -46 20 60 -57 10 95 -26 14 66 -55 45 26 26 22 74 64 -65 -24 18 53 16 91 45 -9 68 88 76 63 -43 34 -33 -52 56 16 4 -45 46 38 70 30 38 -22 -14 0 87 70 -86 -37 -9 -51 58 56 59 -70 43 87 -51 -27 102 -38 52 114 -57 21 -54 78 -24 86 -20 -35 -88 -35 6 22 -86 68 52 -51 -18 -40 -48 1 -44 -8 -26 -60 -31 -31 -35 -10 -30 74 15 -59 78 -80 -94 -37 -31 -21 -45 -43 75 -76 0 -88 -89 50 33 76 -17 -28 -5 -63 -51 64 -25 -57 99 97 -27 -41 -58 58 -72 -65 29 -5 70 -88 48 76 -13 38 90 -69 90 -93 -95 115 74 44 -24 59 -8 82 -43 -97 -55 -26 -77 34 -17 -42 -107 48 -99 -104 -71 78 12 -75 3 62 -17 48 -94 -61 -62 6 -35 69 -80 -54 -58 104 -21 -48 97 -60 -75 -54 -95 40 67 -41 35 36 -59 -90 27 31 27 -7 -58 -49 -23 42 -108 -110 -90 35 107 53 -18 35 84 -79 99 -15 73 -72 86 -117 27 -86 73 69 -14 44 73 87 35 -39 -65 -33 -53 -47 91 -70 2 -112 -85 -67 -32 18 66 57 87 32 89 65 -9 -18 95 -58 -27 -42 -30 4 -17 44 38 -115 -110 76 -76 -41 -25 -80 46 -52 -64 -71 -101 -5 -83 36 127 75 43 -99 -32 80 -71 -63 -34 -60 -38 21 81 -14 -35 31 38 79 40 7 79 64 -94 14 -34 41 -73 -88 68 47 72 -24 -71 94 90 55 76 -29 -78 78 -16 73 46 -33 -84 24 -87 15 68 28 -97 -19 -43 62 57 -89 -38 -50 -44 59 -1 74 -22 -10 97 22 93 10 89 -56 80 -67 40 34 -40 28 -61 41 77 -32 73 -14 -63 43 12 107 78 74 74 -77 96 115 -44 -47 17 -35 -61 -5 -70 -64 -22 -60 48 106 -97 45 7 27 89 85 -17 -14 20 -105 31 62 4 13 -1 79 -4 36 -90 10 -24 88 -27 14 96 -47 68 -63 88 95 -48 78 -109 52 36 11 69 66 56 2 40 -62 87 -1 -2 40 -21 -9 37 49 82 14 63 69 -58 -44 -55 -61 93 8 80 26 2 -93 -8 -46 87 -91 63 106 81 -76 -24 -98 87 3 104 102 -25 -61 -101 -30 70 48 -55 86 -47 47 70 -104 65 -39 -68 -20 -28 101 -110 46 110 8 -40 17 114 -13 -97 77 68 -19 22 23 -14 -5 56 -60 88 -8 -97 64 -105 36 -35 108 11 -102 79 96 -6 -59 -23 -87 31 24 -3 -19 35 -27 -103 62 9 4 -90 -63 57 -79 -11 -10 23 -29 -49 -26 -29 -22 75 -8 29 -3 18 67 47 -1 34 -18 66 -35 -31 -26 -40 -5 0 27 -47 -53 -48 29 -59 20 -34 -16 37 -42 -21 -25 -20 75 39 -12 -5 -24 58 12 15 -53 -6 16 -47 -6 -49 0 43 11 55 13 47 13 -50 57 33 77 -2 29 -46 -49 -38 32 -38 4 -106 44 -45 -3 31 75 69 -4 32 61 7 2 4 -11 -21 -22 3 -113 -9 -44 -38 -27 12 -46 67 10 -13 91 -3 7 -22 79 68 22 70 -35 21 47 57 35 -56 37 -44 -46 27 -74 14 1 12 26 -33 64 -37 52 13 24 27 -10 -2 72 27 6 -66 -44 16 121 45 14 -82 91 115 68 -73 -11 -48 -50 21 -5 20 -70 -6 -46 0 39 22 48 10 50 -9 -10 32 74 30 -26 -11 37 37 -27 -77 -66 39 -4 -40 -32 -33 54 31 35 90 19 36 19 32 80 -74 -19 -24 -13 0 -10 -36 43 96 -37 -76 16 -51 51 -11 20 -43 6 -26 -53 -34 -56 -34 -81 -18 -57 -7 39 33 42 -59 -47 26 -16 68 9 -8 32 -34 44 26 4 35 38 37 -48 -2 -31 -23 14 29 32 -60 -79 -44 -57 -32 24 -51 -53 29 72 26 -10 8 79 -35 -52 113 58 -44 62 28 52 82 -33 -64 18 43 -56 31 -16 46 50 -63 -15 -75 18 -24 12 37 53 48 35 17 49 1 56 11 35 20 -17 -47 40 -45 25 -55 -36 -8 2 32 -77 17 2 -43 -20 -22 36 -61 5 54 3 36 -49 -18 -35 35 52 -11 28 3 46 40 -81 -31 54 44 20 -12 -48 43 22 5 54 -27 3 -53 11 46 47 -6 78 -24 32 -48 127 17 13 -6 -39 29 -10 -49 2 63 -47 46 9 18 71 60 46 60 12 92 -41 36 -4 -10 10 51 42 24 34 -46 -11 -19 -33 -68 -3 52 28 22 -18 38 8 18 27 -14 -14 -121 -5 -29 12 -108 -44 96 66 60 -42 33 -110 -77 -95 22 19 117 28 62 56 4 -108 -21 -41 -85 -28 -50 -6 76 -13 -114 32 -121 -52 -20 67 98 61 -126 80 -57 -79 -85 39 -35 109 98 -53 18 -123 71 -49 127 -120 32 -45 -74 35 51 -57 -20 7 -24 34 107 -127 -3 88 60 -101 -22 94 -105 79 34 -20 16 -89 21 -95 -117 -35 3 33 -78 72 -71 121 -50 -119 -122 50 2 18 -117 -6 -99 -47 27 -31 -121 48 -121 126 94 31 -13 -123 53 -46 -100 98 11 118 -75 -29 90 -13 107 52 -102 -120 107 86 -21 -74 -90 -5 -17 -46 70 -23 -10 -36 -122 81 -41 -97 123 -111 -49 41 -42 -58 41 -71 34 -87 -52 90 3 95 -120 111 61 -113 113 -64 113 -1 -71 14 50 -125 -117 120 -1 51 98 104 -87 81 26 -5 -85 43 28 89 123 -35 69 -28 -57 34 70 -126 -106 31 54 -92 -30 -84 -71 -48 -71 -34 37 127 59 17 -66 -48 -47 36 43 21 -5 67 43 127 -3 -117 7 -32 119 -1 104 -84 -36 -24 -105 81 -106 -115 52 -119 -40 63 46 -116 111 102 73 91 -39 -128 -17 93 -68 4 -39 64 -28 -104 -22 118 53 77 73 -88 50 -62 -61 -114 56 126 3 -3 -73 104 95 48 -12 61 -17 -39 23 -86 -92 -107 45 27 108 42 -40 -102 -110 -15 69 -2 -109 -65 -4 -69 123 83 120 -59 83 97 118 121 106 14 53 -93 -92 12 -107 -125 -66 -33 58 48 -68 -13 -23 -33 -65 52 14 -78 -25 -90 57 -84 -53 125 -67 52 -89 73 -75 31 -123 39 47 124 -56 -60 108 37 83 -41 73 -76 -103 95 -121 -117 -113 -42 49 63 84 -121 118 -31 64 -77 29 -45 -62 -63 46 -66 -51 65 62 -30 -87 124 -123 -108 -35 -85 113 44 -54 -55 -112 -80 107 93 65 117 -54 113 23 81 -40 -77 -103 7 28 122 -126 78 27 -119 66 -110 -118 48 96 -88 -110 100 12 -91 -34 -58 63 44 -36 -51 -63 -41 110 -47 -28 -12 -72 -8 -77 28 33 -25 -79 71 57 -95 -86 63 -65 36 19 11 -19 -65 42 9 -54 71 -30 79 29 45 1 -14 -68 -40 56 -35 14 -4 -34 -24 59 33 69 37 -68 44 -54 -17 -25 64 35 -77 -70 -6 -65 -52 88 49 -65 20 48 69 15 -85 77 -64 -73 30 34 5 3 -3 66 70 -1 57 -4 8 -38 -57 -32 -75 -39 18 17 72 -33 -46 -8 18 -20 49 40 -1 76 41 54 36 -47 -43 29 29 1 -68 -5 -73 83 -41 19 -71 -33 49 79 36 7 -54 -56 -66 -34 76 -22 12 -57 107 53 -35 -66 107 -14 -8 -36 -17 40 -108 7 53 31 51 -89 -86 -48 54 77 -42 -106 -92 15 87 -31 -57 -66 47 -127 -74 -27 -97 41 75 125 -85 -78 -77 90 65 -3 34 67 82 -43 47 62 44 -71 90 -70 -70 43 -52 -88 -39 -88 -96 44 63 102 -23 42 38 98 -82 -61 16 -31 98 -67 -7 -4 83 76 84 -37 13 72 4 43 27 93 -78 6 84 41 52 60 -9 19 -14 -81 69 85 5 -11 -6 55 -63 38 69 66 84 46 0 -86 95 -50 -34 37 3 -46 79 55 55 -89 50 102 84 34 -12 -87 -18 -56 -31 -90 -64 23 -33 -122 -60 -9 -88 40 41 65 73 -77 -41 -76 95 38 41 -38 75 93 -47 -10 28 -9 -62 -33 -57 54 91 -80 -11 -26 -10 -17 28 87 -10 92 -39 39 -86 63 65 66 49 48 81 -42 71 84 54 -28 48 31 52 -44 48 -107 1 -42 -8 38 81 -40 60 15 -12 -74 71 -3 -11 53 64 -84 37 -41 73 -56 21 -83 -59 6 -8 45 -71 -41 13 -62 84 -28 24 20 -27 -25 -25 14 16 83 69 -55 1 -18 5 -45 -101 49 -38 90 97 -41 82 93 111 12 110 -42 -7 63 86 -83 47 -47 23 54 16 -25 52 -87 87 -67 -47 53 -56 26 -15 32 -27 -22 29 50 -48 54 26 -114 35 28 -18 42 -18 -67 87 49 17 35 33 -32 49 -34 44 -86 16 15 76 -96 -17 -76 21 -20 5 28 -63 -12 -77 -83 69 32 2 72 -12 -36 -26 -13 59 72 31 47 11 -68 -9 -31 44 32 44 24 18 -42 63 -62 -81 -23 -82 -54 36 -74 -75 -67 26 85 -65 -16 -50 -32 30 -50 -8 5 -26 50 -94 -41 38 64 -46 -79 39 117 68 6 -30 -23 8 115 32 -43 43 107 -48 50 -7 -19 -65 61 83 19 -59 -11 60 -86 -10 117 63 -61 -38 59 -57 -78 -76 -16 -5 -68 50 -32 80 -82 26 -88 73 25 -61 -126 115 10 68 -65 20 97 107 -53 25 -19 53 -97 -14 79 -31 -18 -103 78 -12 -74 -47 81 96 -3 70 78 5 33 -15 -11 -33 64 -29 50 -3 -72 104 69 -17 -38 -21 38 -65 -79 -10 -69 76 -72 23 10 -5 -60 -19 -84 19 53 15 22 -35 -22 -47 62 33 -41 58 26 30 -2 -102 28 -99 -30 -107 20 84 30 -64 -77 52 100 -53 -44 -18 -49 71 -46 -35 -26 -26 -88 -34 53 -20 -1 -92 -86 -11 -51 -63 22 -41 -66 36 2 75 -37 -58 74 -24 52 -53 57 53 -45 53 -12 -40 -4 92 -60 -46 -37 -84 -73 95 82 -43 -37 29 69 55 -18 61 -67 14 -6 -35 127 62 -63 -65 19 -17 -2 -27 -26 80 -23 46 17 -10 -36 20 -27 -91 11 -55 43 -15 55 52 62 -54 -82 -75 64 -16 -31 21 -63 75 -87 2 -12 12 42 -31 -31 -64 29 37 -6 23 60 5 40 -54 -14 33 -56 9 90 74 18 34 79 -28 -29 -12 31 -58 -26 -9 13 -34 -47 -70 -14 32 -18 -53 47 -58 -57 -13 -1 -69 60 20 -80 14 26 45 -43 9 61 55 11 -30 62 107 -90 -85 24 8 12 3 41 96 -36 75 26 -71 93 -60 -18 91 40 7 13 -83 64 75 -83 47 -71 44 -68 41 -49 -31 16 103 56 -15 -57 2 -1 61 -67 -9 16 20 -62 -50 40 -36 74 -37 -12 43 -19 21 47 40 -46 -21 17 22 66 -8 46 51 49 7 -64 -18 1 -22 -26 -11 -47 26 57 47 -8 27 30 -14 -18 33 13 -52 -45 -41 51 -55 21 -2 55 -9 -51 -55 -40 -61 -46 -50 -15 -19 -3 -6 53 -40 37 43 29 50 -28 48 -1 30 56 -27 29 -22 53 -8 16 -23 54 81 40 -14 55 -17 56 52 -75 21 27 -72 -6 -31 -64 -15 -59 75 39 8 28 -31 3 28 38 -13 12 -42 43 -48 -71 -19 -10 -31 14 3 -40 72 89 53 40 20 44 -22 -10 24 18 -38 -27 -128 -73 -5 33 33 -1 -100 47 29 37 76 79 -4 -3 33 15 -9 -67 50 -47 -5 53 31 28 6 60 38 -20 68 68 11 -22 -23 -49 34 -14 23 45 16 -29 20 26 -26 -21 -20 3 -7 -46 -44 51 1 84 45 70 99 57 29 64 -6 -61 -26 -68 -13 46 15 -11 10 -24 -32 -40 39 -45 3 -71 17 -90 -57 53 10 -18 -71 -35 1 -37 -32 64 -15 2 -34 53 60 -24 0 -1 -35 12 -26 2 -46 8 -45 -41 -35 -35 21 13 20 54 -6 16 -18 29 -16 -4 -29 -31 -47 -50 27 -13 -50 18 37 30 19 60 -16 -10 -2 69 32 -47 -5 36 -82 31 -52 -29 38 44 37 -65 -35 -17 2 34 -53 16 -26 12 -13 14 64 5 -35 -47 -8 21 -46 -37 56 -14 38 -52 50 12 -20 -45 -7 -20 34 -33 57 39 -74 -69 -71 -28 -4 -4 -30 6 -9 -10 43 68 15 15 70 17 28 15 -22 -57 -58 -4 11 15 -54 -30 37 4 40 -44 -2 -11 -6 12 -33 14 -4 24 -24 31 18 47 -28 17 7 -55 -27 54 -14 -31 -7 -4 37 17 54 90 -21 60 50 -28 5 53 59 52 -69 -30 -97 -32 -48 -42 17 17 -91 -91 24 -17 -36 -56 -21 18 54 -6 28 48 32 20 -47 6 5 -6 0 1 -74 -41 4 2 39 0 -58 22 18 -59 56 3 -52 -33 -4 -60 38 31 51 -28 -1 33 29 26 -43 33 -36 28 -58 -22 -79 -51 -44 -32 18 12 -15 -48 42 0 43 40 -43 19 -30 -46 11 44 62 -8 -12 41 22 4 -28 -43 27 14 14 -23 -8 34 -44 -33 20 -4 -11 46 -2 3 -2 4 48 54 -40 -35 -2 22 -22 10 -53 29 -57 -102 11 46 47 -28 5 65 -33 55 -35 -1 76 -30 71 58 -29 28 1 -5 37 -53 -107 20 -14 19 6 -44 -21 -12 -63 29 18 22 31 -27 31 -31 62 14 -50 -18 -35 -8 -16 -57 53 75 -3 -61 18 -59 -1 -6 60 -5 -24 48 5 61 24 -13 44 -12 20 -76 -112 -23 51 38 1 -99 55 95 -60 -52 -65 8 -26 -42 -48 -30 -60 -13 -27 -1 10 64 -37 -26 100 84 -49 11 37 46 127 9 -65 12 23 0 -51 -39 -9 15 -32 27 0 -50 39 -34 13 76 7 79 15 1 5 34 68 7 -1 27 -31 -47 -6 13 20 -6 -54 19 -60 -27 -3 10 9 -56 -23 -40 -73 5 2 53 -3 -30 -20 -62 66 54 -14 3 -5 43 -30 4 18 -36 26 20 -60 30 -6 -20 -59 -63 -20 7 55 -41 42 -22 -38 -25 2 -60 6 22 3 17 -31 34 36 -64 -48 25 22 36 36 47 -48 -39 -28 -16 -51 16 94 101 -53 -11 -17 -52 0 3 57 -40 35 -40 42 42 40 -38 48 -53 -18 4 31 9 -22 1 10 -49 -31 -6 10 -43 -34 83 87 50 -45 -24 -4 -41 -17 2 2 -19 -27 61 -1 -51 -41 39 -1 -6 -37 -21 67 51 -10 -20 -16 -35 -5 -34 -43 24 9 52 -35 29 14 32 22 -34 -15 -5 16 4 10 5 -40 -2 46 -15 19 -8 45 -12 -61 -34 -7 30 5 -24 44 53 35 10 37 3 -34 4 -7 59 37 54 -9 -54 4 -30 -7 84 22 -10 22 -90 -29 -56 12 34 48 16 1 3 45 -63 82 -15 29 16 7 -72 19 56 -55 74 55 34 -44 -107 -14 -72 -3 -61 -86 -40 36 -55 -100 5 52 -34 100 -82 1 101 22 26 -78 -67 -7 -82 49 -7 -66 -11 58 63 -46 -35 25 94 -22 -52 -67 -83 -88 -88 73 34 -28 28 18 -26 -57 91 93 -92 -94 54 39 66 43 66 -29 -50 3 43 -50 -10 90 -77 100 96 -76 -13 -71 -58 113 -10 -34 -66 -18 6 78 -44 77 50 105 68 -25 64 101 28 -70 42 -48 76 -84 -20 96 -73 55 -56 -55 -88 -42 -68 90 65 22 28 -97 -11 -107 28 -78 79 -97 -26 74 -29 17 90 82 40 58 -77 -75 48 -21 61 19 99 -36 65 47 -17 -60 72 61 -102 -100 49 12 -73 -73 -32 -99 -14 -67 18 -56 -73 107 106 23 -5 -66 52 -38 -20 58 -81 35 -77 -90 72 -1 -30 -10 55 -24 -63 -46 23 127 116 -72 87 51 -73 19 44 33 -35 -51 -35 48 -89 -64 -60 -4 50 -60 25 57 -56 47 -45 -81 81 107 -27 -96 -12 90 -7 -37 51 -60 55 -76 -102 -112 89 3 -89 -100 -46 85 -27 -97 17 -55 -49 55 27 -25 -56 -63 -95 54 105 -68 -18 45 -83 38 19 3 -64 -70 -87 56 -38 90 -59 -28 -32 82 81 44 66 -66 47 -89 -60 -10 8 82 -77 100 78 35 -127 -6 -16 -115 40 -55 112 40 -2 -57 -58 50 -50 -48 40 -78 67 -15 60 10 65 58 40 -21 46 -30 78 76 -21 -92 8 89 35 4 -29 23 13 -66 5 48 12 -49 34 127 51 -66 -31 83 -74 -88 3 -44 -63 -41 10 -6 -68 -26 -95 -63 -42 -61 56 -77 -23 -72 36 -71 100 -53 -80 71 38 -19 68 27 18 -34 -52 -42 5 28 88 85 -34 34 41 40 -48 100 62 -37 41 93 -67 7 98 14 -33 86 -56 35 55 41 28 -45 67 -13 -69 90 15 -46 -30 -26 95 -96 -82 44 -57 -71 30 -19 -24 82 -11 -36 77 -27 2 87 44 -70 93 -44 103 70 73 -85 1 7 -6 -43 29 -15 -9 -49 26 76 -60 24 101 27 -68 -49 -33 38 -38 -79 -28 -19 -7 83 72 -12 -7 -45 -72 -65 -76 69 33 14 80 -88 23 48 -85 -25 -62 32 -23 52 0 -64 55 -25 -54 -49 -78 36 -76 -82 -19 -14 57 -72 80 7 63 -20 71 11 76 -47 -30 -22 -57 -18 -84 -26 28 58 25 54 67 -69 -32 30 -104 -36 -53 69 -10 -23 53 -58 28 -65 -22 54 -9 -81 -30 16 83 -24 -49 56 -9 7 -2 -80 49 6 -12 -1 68 -34 17 -15 89 -6 -76 48 -20 97 57 -65 8 81 -40 18 -33 -8 53 -77 -39 -40 -66 53 79 -18 -19 -6 34 6 92 -54 -67 38 26 72 -6 1 56 5 -5 58 59 120 43 -42 69 21 -73 10 2 -31 71 -42 4 -76 -21 86 96 -61 25 82 -10 -84 -40 -52 54 58 -58 22 -9 51 49 -21 -50 -99 -91 89 -29 21 -14 14 -40 -35 -16 48 21 -41 24 44 -46 -35 -53 14 -19 -33 -64 -65 15 40 9 -67 -22 46 84 -49 31 -10 -12 -3 31 -62 -3 42 -73 70 -83 -17 10 -80 -41 -27 21 -4 74 82 65 62 61 20 55 -45 66 -52 1 58 84 -70 7 79 -40 0 5 -15 53 0 -32 53 -30 -107 -128 -60 -53 52 -39 -44 -10 33 5 -8 -57 -55 50 63 -67 -67 -26 -75 -70 -8 -35 8 -28 19 31 -82 -57 40 -42 73 -78 6 43 -19 -31 31 -15 -6 -73 14 -38 23 78 90 -41 -17 19 0 -57 -40 -22 -30 31 46 8 -14 -73 16 -27 20 -34 -66 11 -49 27 -35 -54 52 22 7 -55 -72 -64 71 10 29 -76 -13 -11 33 -14 -6 -32 90 -43 54 -33 84 -3 58 -25 -44 11 10 94 -8 -91 6 61 36 -52 -74 -54 69 24 15 -46 -51 -28 -10 -24 -29 30 21 37 -77 48 -33 17 65 65 -42 76 36 -65 -61 60 0 38 33 -62 38 69 71 56 -38 -5 25 40 -17 31 89 -18 26 -57 -33 -18 -26 -78 1 -62 91 -30 2 43 -91 24 2 -65 -58 -31 -46 76 -10 -70 -46 -14 70 -32 70 -39 -27 -15 23 79 -7 73 -16 43 -16 67 -10 -5 69 -22 66 -77 19 -33 -63 -24 -30 31 -44 36 -21 -37 -76 -61 -15 7 4 -25 -75 32 29 42 37 69 2 -5 52 -14 -72 50 54 -9 70 40 33 -69 84 -24 -12 72 30 -23 7 -96 63 -25 42 81 -80 -7 -1 -30 40 80 -77 37 -84 56 -25 8 -32 -1 80 72 70 -62 74 -3 -62 66 69 28 -73 -15 41 -56 -27 39 -2 -102 -38 48 32 -37 22 -74 -8 60 7 -23 -6 11 -22 -21 -74 31 -48 95 -19 73 86 -9 64 -33 -54 0 31 25 70 -36 -16 67 -29 94 28 15 -47 17 -62 -22 -66 26 -53 -3 -39 46 82 6 81 -75 44 82 -10 -58 29 -54 98 -27 127 -15 3 14 -41 34 -26 -17 -59 -45 -19 -41 49 -69 -48 9 53 -53 84 53 -2 2 70 -86 15 49 48 -4 -50 13 6 42 37 -30 -65 -72 -69 -45 13 -42 -13 -87 -36 69 52 34 -69 -16 72 10 -60 -35 26 -19 -1 47 19 -29 -4 -16 1 47 32 52 -35 -4 0 -8 78 -39 52 20 6 46 98 127 101 78 49 60 -23 -90 78 -65 19 65 -24 3 13 -67 -57 -47 -17 48 2 23 -24 -24 -6 -1 54 53 6 18 -78 5 2 -19 -73 19 62 -54 -37 -46 -73 8 29 -80 22 68 -80 18 -86 17 22 -22 -17 -50 -57 37 77 35 7 -14 86 -36 8 -59 -10 59 -33 -54 -37 18 -9 56 45 45 12 -30 -56 53 -38 -71 -40 -31 -20 11 -19 -32 22 -59 -13 -4 -17 1 66 -18 -56 22 -40 -107 -17 -76 76 -5 71 21 -54 -76 61 46 1 -12 -60 -8 52 88 63 -64 37 69 -8 65 32 -58 55 14 -27 -71 -75 -57 -42 45 -12 64 68 37 89 -84 8 -11 94 79 -47 -73 -27 49 2 -63 66 89 38 32 -49 -79 46 72 33 -46 -31 6 -44 -54 -16 -43 44 -95 -8 -47 0 7 38 -9 -34 30 -18 -41 -36 -1 11 -11 -44 -48 -10 -6 13 -42 -19 -29 -42 -70 4 -39 -34 41 -10 24 52 38 -38 -11 26 41 -28 5 25 -43 38 50 25 48 -10 -68 7 -45 -18 -17 -40 43 -49 9 38 -5 18 7 45 19 -46 -30 -89 10 31 -52 -128 -62 -85 -18 -3 -61 -70 16 -20 -33 39 10 -17 -49 9 -5 -63 20 -31 -26 -12 16 90 47 21 67 52 -52 -41 -17 9 21 24 -47 53 63 11 -31 -80 32 11 11 70 37 -3 -8 -119 55 65 36 -1 -58 10 3 8 56 70 38 41 -45 91 13 23 -52 -14 16 50 16 2 -69 -7 64 -40 -53 -10 51 25 -27 -64 -13 -6 -54 17 -9 94 21 39 -14 2 -3 -12 32 49 -67 3 -55 -52 -31 -1 16 -9 13 7 -54 -31 4 -48 -9 -44 71 -5 29 54 -9 36 -43 -29 41 71 -1 -47 32 54 71 -13 36 -24 11 -4 9 -28 48 -14 -26 11 30 68 -55 -9 0 -51 -44 -26 34 -32 14 44 -26 50 -43 43 40 -41 18 -13 13 20 23 3 31 -46 48 -33 11 39 -20 -26 -1 -2 -35 -57 66 -30 21 -107 54 7 5 1 8 12 27 0 -6 -1 50 35 -43 1 5 24 -44 54 36 24 19 -42 -28 42 31 -46 30 -13 22 10 21 15 -27 -37 -25 46 17 16 -16 -5 27 32 32 39 19 9 3 50 73 2 21 24 -66 8 2 -33 32 6 -37 -39 -21 -10 46 -34 13 28 57 21 -6 13 21 -5 -45 -44 -24 -21 -44 10 -70 10 -46 76 12 -16 36 -17 -24 -6 -42 18 9 42 4 -65 2 60 -28 43 2 -38 36 -8 15 -69 6 -27 -34 10 16 62 -41 68 48 41 40 19 -42 26 85 16 -40 -15 1 -11 -6 5 5 -59 17 -48 -61 30 48 9 64 17 -17 25 35 44 23 -69 -13 54 54 -20 -48 12 49 14 -69 13 43 -5 -20 -19 39 10 -23 11 -12 26 -9 10 -30 -22 -10 28 -17 41 -21 14 38 23 12 -12 11 25 -27 42 14 3 26 -9 31 24 0 -39 -1 17 12 -6 -20 -20 -12 10 -6 38 -15 -25 -2 -18 -40 -3 6 34 -25 -4 -11 17 17 -5 -10 33 28 24 41 52 101 65 -10 -28 -37 34 77 -51 -41 0 -21 -24 -33 60 -14 22 -41 20 37 73 44 -39 -12 26 -9 -25 -1 15 -15 6 -61 29 26 -40 -31 65 70 48 55 47 6 12 10 -62 -30 32 16 -49 -59 -115 -26 -37 17 -1 -73 -43 50 37 -12 -7 73 54 -7 11 61 61 37 23 -37 -22 11 -58 -12 47 127 3 -53 39 55 -5 16 -39 -46 -13 -48 -49 33 -67 -49 -20 -16 44 2 27 40 30 -13 1 41 83 30 14 36 50 39 -9 -9 -19 -9 -18 -67 -42 -20 30 -6 -28 59 2 28 37 -30 -2 -20 -13 -64 -17 -44 -25 -32 8 60 -8 -27 12 52 32 -22 43 -22 32 -3 -34 36 -43 -55 -38 -36 -20 -1 -22 -40 -38 6 -2 36 -37 6 -30 -35 38 24 -13 -11 35 20 -32 17 -37 -26 26 -39 -28 53 -3 19 -33 -48 20 -22 13 -55 -63 8 1 23 27 -7 -3 -25 39 -9 18 -20 -5 29 46 -11 -1 30 -36 -20 -20 19 -19 -48 31 26 37 -9 33 38 28 42 4 9 -24 -3 -9 -17 -11 -19 2 -23 19 -10 -14 -43 47 24 16 23 0 0 45 -1 -15 -18 -27 49 11 -12 -35 -12 -18 40 -8 -4 -12 -25 -29 41 16 33 29 -2 0 -47 -42 -1 -5 -19 7 15 21 -42 5 38 18 -25 15 -12 -23 28 3 9 11 -79 76 87 34 -25 -4 7 12 -35 -54 34 -59 -11 -65 -23 -15 -51 18 3 21 28 -2 -64 -26 35 -16 33 5 18 24 62 8 -75 19 -7 17 31 -12 -12 2 -29 -24 6 22 12 7 -17 -48 48 74 60 -24 -91 -30 7 -47 -75 -41 -54 -8 -76 -19 -27 -42 -28 -22 35 -20 -4 32 29 -45 37 30 -33 -14 -51 -5 -16 -8 -9 -61 -46 -6 -28 -22 -20 -7 1 -62 -48 14 24 -39 -13 10 13 18 0 73 65 38 0 -49 34 7 41 -9 39 32 31 19 -49 -8 -10 -21 1 -12 47 48 -41 -33 -40 71 32 6 -39 -63 -36 7 -22 -62 -67 37 1 25 -6 -40 13 5 -27 15 -57 -11 -18 8 5 -81 -99 -38 -48 -43 27 -21 23 -60 -8 26 89 28 -41 32 44 -25 10 17 -54 -15 46 13 48 23 -18 -112 -56 54 32 -33 -53 17 -7 27 -78 -12 56 48 -35 1 43 37 4 34 -61 24 36 -92 41 61 110 -32 -73 116 66 55 -29 -16 -22 9 40 -49 70 127 117 116 53 56 59 -54 18 30 -41 12 13 79 73 4 47 32 -26 -28 -15 40 -15 30 36 26 -8 75 55 66 82 49 38 44 -35 -36 -79 -68 -33 -62 -3 -14 39 -23 0 19 -40 -3 -11 -45 52 15 -55 46 -82 53 -26 -69 -7 -52 -30 -12 15 26 -13 10 -41 26 -11 -1 -48 37 25 -54 32 -53 34 34 41 38 -55 -40 -9 -11 9 -12 -42 12 25 23 -82 -27 -19 -57 8 -91 -14 84 6 -24 -3 36 -11 26 69 44 -25 81 -1 -30 38 16 -10 9 11 9 24 26 -15 38 -29 34 -7 29 32 0 29 -63 -40 -21 41 -34 -49 -14 49 1 37 -24 -4 -56 58 -29 13 19 -6 43 -30 -32 -18 -10 -31 -3 -13 19 30 25 80 -2 37 -13 -26 -28 45 48 19 -36 39 -36 44 15 -51 0 -6 -44 48 -3 -37 -30 49 23 31 -33 12 61 36 22 11 17 39 47 12 108 65 -10 -18 -10 47 10 28 -2 -36 117 113 61 47 -7 50 36 -11 -38 -12 -16 -60 52 1 28 17 -31 -58 85 -31 -48 -8 -47 23 -6 2 21 40 70 -16 26 42 -64 -6 57 -7 -98 -85 66 44 29 -51 57 -42 22 -23 22 60 -28 11 53 -54 -36 -52 -37 46 -66 -18 25 70 -12 -56 6 42 52 48 -26 34 -9 62 -31 48 -68 -86 -4 -5 74 -33 34 3 46 -48 -58 -30 48 4 47 25 41 72 11 -48 44 52 23 -5 -68 18 -46 48 -21 11 -15 -53 56 -57 -24 -48 49 20 25 53 70 66 95 -15 31 -31 45 111 54 56 46 -57 15 49 -1 -51 26 -74 -25 29 -66 -41 36 -9 -60 -100 -20 -4 -52 -22 -62 -78 -70 54 5 -63 44 -40 24 -53 11 47 -72 31 -17 70 75 -38 44 -53 0 -109 -24 22 -88 -27 -70 47 -49 6 119 31 -14 30 -96 66 -2 30 -15 -13 -73 52 -54 -11 127 57 76 -86 7 24 25 1 9 2 49 43 -41 -52 61 1 62 -11 61 67 23 8 -70 18 -38 59 23 29 11 -5 48 57 -22 20 49 31 46 50 -65 -10 -57 55 40 8 -28 67 -4 16 60 -53 34 -25 -84 36 -72 -78 11 33 79 3 -21 9 55 -16 -9 -39 37 53 -6 67 40 28 14 24 -6 69 -22 65 63 -38 -25 63 53 15 -52 -36 17 -57 -63 -66 68 32 -17 51 -39 -14 41 71 -23 -1 17 12 56 -47 -2 91 -45 33 -12 -17 13 0 58 17 16 36 -48 -19 79 36 12 -7 65 -39 30 29 -57 46 -23 -13 63 -15 3 18 -62 -4 -65 -15 6 -5 36 30 44 -23 4 25 32 3 51 -78 -25 -119 -89 -58 29 4 -44 19 38 31 -1 12 16 27 44 14 -28 -32 -44 19 1 -4 -25 -23 -28 -3 16 -26 3 43 71 34 57 -84 17 59 5 57 17 -2 20 -14 28 62 68 -59 -48 44 -47 -25 91 45 52 -83 79 88 14 -20 -58 74 14 -31 52 54 9 -41 65 -15 36 25 20 12 -104 57 -42 5 57 81 -50 44 -54 12 106 81 33 103 -50 20 7 14 54 -34 0 71 33 -60 36 -97 57 48 52 -18 12 -25 52 25 -26 -43 -54 50 8 67 9 -12 23 -20 -61 11 -12 -47 -12 -66 -72 -47 32 -53 -41 14 -43 -27 -11 -26 30 29 -34 28 34 26 48 4 49 58 -3 -32 -46 -21 30 -43 3 -27 -7 -37 -74 -25 -44 39 45 -40 31 7 44 31 3 19 34 1 47 24 -46 -39 -29 5 17 -34 -41 5 -48 8 -31 -4 47 54 -26 36 49 86 34 -4 -4 15 80 -35 36 -6 -7 -9 -39 31 1 -1 10 75 37 27 25 22 -38 -29 36 -47 -31 -36 -32 -39 -40 -15 20 -5 -6 -1 -81 -16 16 29 -39 14 -27 -55 -49 -21 39 -23 -25 -51 6 55 -9 -27 14 -30 -49 21 -48 54 18 -63 -1 50 -13 -72 35 70 54 55 -91 -57 32 103 83 -53 37 16 -13 -6 18 9 42 -7 -57 20 54 41 -25 10 14 -28 20 75 58 12 38 -28 46 -9 -19 -6 56 -14 35 -9 45 -19 -62 -4 -2 -27 -46 30 0 -13 -3 17 -61 19 37 20 -93 -89 23 -7 28 -83 10 -25 -7 -33 22 -14 21 -61 -28 -10 18 43 -4 -20 -37 -43 -38 33 1 22 -61 -63 -36 28 1 -53 52 -2 -8 -1 -11 45 37 7 -29 -42 48 -23 -21 2 45 47 29 -39 -34 5 52 -2 34 1 28 43 3 17 -28 -25 -61 -20 13 74 25 -5 40 51 29 -42 55 32 56 -1 14 3 35 57 -14 -10 -32 -21 -54 -16 -21 -2 -41 -3 -40 -15 -35 -22 -12 25 20 -38 42 5 6 -71 9 -64 -27 67 -67 49 24 26 -49 -36 -9 -14 46 18 61 23 -4 3 0 -7 -23 -19 19 -2 75 48 -52 -41 -34 50 -49 22 -62 -19 -43 -44 11 50 -34 -41 42 0 -41 59 127 22 -62 4 -8 78 42 -44 -3 -1 4 25 15 -21 76 6 -38 29 69 43 -4 -16 -45 46 -47 -6 -9 20 10 -3 -30 44 -1 56 3 9 25 40 32 -57 -17 -61 51 36 17 5 -26 3 -33 75 25 55 -47 -70 30 3 11 -32 -31 -48 -68 23 -22 43 -14 -3 -39 71 -20 28 67 -8 -18 -38 51 16 22 -40 -40 37 -7 24 -62 26 -41 -28 -16 21 -57 -9 -66 43 43 -55 7 -54 51 -13 10 33 27 65 19 15 -45 -7 -73 -10 33 -44 -17 -57 24 -25 28 42 37 32 56 -9 -48 45 45 0 31 3 48 -10 -64 -32 59 70 -125 -53 45 36 -72 3 48 28 26 -7 78 44 33 61 -10 -8 21 27 -25 22 -48 -94 -27 35 -30 65 20 100 61 0 13 99 -52 38 24 19 46 -70 36 9 -2 -57 54 -10 -15 -8 -63 -1 37 51 -13 -55 26 39 -5 83 19 -6 50 -6 34 57 25 -30 -16 5 46 -5 -93 -19 19 -38 -74 -5 -102 -11 70 -15 63 -11 -35 -12 20 14 -6 -52 -21 -3 31 28 85 51 73 -65 -75 -24 -24 -37 -4 -31 -28 1 20 -26 -34 -10 43 52 66 75 -4 53 -2 12 42 -24 -51 1 46 11 -56 57 116 28 -30 26 15 58 62 24 57 60 -60 -77 19 35 72 -77 -26 13 -14 -11 -3 -44 43 -38 12 -51 -3 -4 59 57 -31 23 -46 -57 45 -16 -2 -22 45 17 20 -58 37 46 -14 -33 -34 -78 -2 17 42 -20 -93 -21 70 84 -23 -40 -6 35 5 -14 54 -12 4 -35 -4 70 -13 25 49 -31 -40 14 -29 -51 9 -44 -50 -61 18 -48 25 54 11 8 64 51 25 63 -32 -55 9 11 55 -19 78 55 -50 3 -48 60 31 31 -46 -99 23 -54 16 71 81 -2 -52 -10 26 -31 16 63 35 47 6 45 -1 23 0 -43 -52 -67 -44 -24 -27 -69 -53 -47 29 -47 39 -12 -71 -42 16 -19 -50 89 41 -21 -32 -107 8 7 -77 0 -72 31 -15 -66 -14 21 -3 28 15 42 39 -21 54 20 24 -12 40 31 58 91 32 62 22 -12 -3 -62 45 -128 27 13 15 -63 -14 24 11 73 -56 -39 -7 20 71 -67 -69 124 8 116 -77 16 -106 -76 63 -124 114 -62 62 -74 -94 37 -48 98 -80 82 -111 54 -27 -118 11 23 -16 9 120 -118 39 96 -74 -70 45 -121 33 45 -8 -126 -27 33 8 -40 120 -3 -75 -88 46 -85 44 -25 18 97 -43 20 109 -9 -86 -50 -127 52 70 126 -23 10 118 15 24 -99 -62 64 126 -29 -119 -101 95 116 -51 -126 72 35 -104 -61 -25 118 5 -29 109 -68 -96 107 -62 -35 20 -43 -64 20 94 -84 -50 -120 -108 -21 39 -17 30 39 -106 126 -112 -93 72 89 88 -13 -37 106 95 127 -8 28 -107 51 70 -84 -18 28 6 -112 -94 -67 6 -29 120 108 -89 -121 11 -117 -77 -106 -5 -18 46 -77 -79 -68 -76 71 -76 -6 -2 113 78 -46 -29 -94 -103 111 -23 34 -25 -55 46 -85 -19 33 61 45 -54 -19 -85 104 -55 -37 -39 -87 27 -16 56 -48 -6 -35 33 25 65 73 94 65 -108 -55 87 124 123 -69 81 -47 18 -106 125 -64 50 -52 -24 -125 51 -116 -79 -13 -116 40 53 -42 -24 -107 -43 -60 -89 -77 -57 49 -48 35 -71 -115 -36 -104 -77 -117 -61 -112 -85 -16 20 -90 -38 -12 82 -14 -101 -38 75 29 -37 3 -21 42 117 68 -92 47 -89 -125 -14 7 -26 35 91 -32 -24 3 -4 -37 99 119 -60 19 39 60 -26 98 65 24 -36 72 96 12 -20 19 27 -94 86 121 -77 75 -90 -117 -8 126 2 -12 -36 107 34 -29 42 103 -40 20 -99 -114 -39 -90 59 -64 -72 22 52 88 -52 -86 -106 107 -60 -113 84 116 -25 -99 -26 90 9 -80 -78 10 -69 -35 -74 82 77 -9 -119 85 71 -18 -91 -59 -109 43 -80 -23 105 0 -55 -58 -117 -8 11 -29 -55 -33 -79 -85 -122 14 27 -77 87 -14 70 124 -113 68 58 3 -21 -91 -8 -10 81 31 102 -117 -122 -72 -126 -28 -80 -101 111 -70 23 93 -64 -90 -20 4 127 93 113 -89 -71 -74 61 58 96 105 95 -24 38 -40 -24 -28 41 7 72 -25 -29 8 -1 12 47 42 12 12 -7 -20 -27 -26 49 37 3 22 -1 10 -2 4 -12 -11 30 16 2 -2 -6 -7 26 -5 26 -33 -43 -34 -4 28 -34 -2 30 -18 12 1 -1 -45 -35 24 -25 -2 16 -11 -28 0 9 20 -5 2 29 -28 27 -34 5 11 24 0 18 21 -12 -3 -16 -47 25 -18 -8 45 -33 -33 -53 32 39 17 -22 -39 55 5 -7 -10 -31 27 76 39 -44 -31 -13 54 3 67 -8 22 39 -24 -12 1 27 6 -47 -10 43 64 32 -41 -49 -11 3 -45 -20 -4 -1 22 44 1 20 35 53 31 -34 -17 -16 25 57 35 -33 -2 127 92 28 -9 -24 65 -51 -42 -15 -31 -77 -27 25 65 -58 -25 -7 33 54 -6 -92 -5 27 -22 -73 -84 -55 -84 -55 -73 -5 66 -10 -19 -22 -61 -76 16 74 0 30 9 -3 7 -7 -6 -16 13 29 -6 -60 -10 -4 -53 -34 -18 -35 -16 -16 14 28 34 5 -11 56 39 16 -46 -41 77 40 -31 -19 -25 56 42 3 37 -24 29 -32 17 -12 -4 -11 -29 23 -25 -15 -5 21 26 -40 -7 0 43 -5 6 -19 5 2 -15 15 -23 -34 -42 19 9 -9 -21 5 -49 -7 74 29 11 37 -15 3 -9 6 1 38 -7 43 39 -12 -73 -63 -31 -65 39 -27 9 -27 21 46 -28 -13 -24 -14 20 -20 2 35 22 37 -33 31 -28 -19 51 -16 7 5 -25 29 34 -1 -13 36 23 -56 -13 23 47 37 4 33 -12 15 50 17 9 11 68 30 -25 33 -73 15 6 -46 6 2 -25 -15 -4 13 47 -38 19 19 -29 23 -12 -8 2 -39 -18 -7 -50 16 42 -16 0 -13 -16 -24 -38 -14 -36 60 40 -74 -52 26 11 32 -43 -11 -60 7 25 -66 -57 37 -36 -29 -48 11 34 -15 0 31 36 14 -32 10 -39 17 6 -75 63 21 -71 -13 35 34 -15 44 6 -3 -38 -29 20 23 22 -31 87 -123 6 123 92 41 40 -84 -97 55 32 114 110 60 -75 -38 -7 105 31 31 -60 42 90 -123 6 -63 -2 -11 -114 -72 -18 75 -45 -70 93 -19 117 13 40 -39 -110 -122 89 99 -7 -30 -98 102 -52 -89 53 -109 -122 -22 -110 20 -109 29 -70 -10 -56 42 -94 40 83 -96 -77 -31 -8 77 -105 -35 -100 103 13 52 12 -108 -37 9 1 104 -94 18 107 -115 -43 -76 -41 109 -85 -109 12 -67 44 -12 -65 -50 -105 6 -90 -123 70 -70 -41 -26 -85 25 32 -114 93 -93 -3 -57 8 11 26 96 -93 60 14 48 -94 50 -68 87 40 -47 -99 35 10 20 -56 59 61 87 40 106 61 -70 -55 -59 -18 35 6 -65 110 -35 54 32 -51 81 -19 -105 -21 77 -32 -103 -10 -91 82 0 -20 -104 -118 123 -13 -59 122 -33 89 -68 29 -70 -112 104 -45 -81 28 42 -109 22 -107 99 -2 -16 -39 -41 31 -125 -76 94 -62 26 71 52 70 97 56 -62 51 -100 92 -21 -117 -91 -70 1 -34 60 -77 -23 -113 63 -120 -69 55 -70 17 -2 -45 59 -124 31 117 -86 -113 118 114 44 -41 -3 -103 110 65 118 58 64 76 -17 -125 -21 -117 -65 84 -20 127 98 101 34 -44 108 57 -52 50 -28 112 -6 -66 44 -84 -91 106 115 88 102 -31 46 56 101 53 38 -74 19 125 9 -100 -75 -9 79 -88 56 114 47 -32 -29 31 95 -105 83 63 93 -69 3 -89 -91 24 -39 19 -123 108 -106 5 30 -25 28 40 57 8 -101 -67 -55 47 -3 -51 121 -42 -78 15 -71 112 73 53 -87 84 30 -23 -24 -28 -50 -121 -25 13 10 -119 47 49 29 61 -33 31 91 -101 86 26 36 0 -8 -88 -99 -73 -32 90 109 -46 56 106 79 119 75 111 106 16 -28 -59 51 -66 111 -66 -35 38 2 86 -80 -99 35 -36 31 2 58 -88 -6 80 -44 -114 -17 -56 -114 -60 -87 105 88 47 -34 -77 -77 -9 74 3 125 33 71 -33 -43 29 -34 47 75 -21 -55 -35 20 33 -81 -8 19 -69 52 -56 26 -34 28 68 -39 -39 -51 32 -30 -65 11 42 33 -14 -11 65 -46 27 -14 -55 -14 -1 -1 45 -10 40 44 -28 -1 36 -2 50 3 16 34 17 63 -21 -54 33 -29 5 24 29 -57 -12 45 30 -25 17 46 -14 -58 -11 -18 41 91 22 -47 -37 -55 72 62 -32 -43 13 -53 36 59 8 -73 -9 -128 -54 22 -27 -10 -32 17 59 17 54 34 27 13 20 52 -44 -30 12 50 -101 10 -44 -76 -44 49 -24 14 -92 -33 15 82 46 32 -11 14 -34 15 13 -69 -1 -7 31 -15 -94 -21 37 54 39 -15 -30 58 0 37 -59 -20 106 93 65 61 -19 22 -78 32 3 72 36 48 25 -3 -2 31 60 54 -49 -40 74 -48 29 -19 -77 -74 17 -19 41 -4 47 15 21 59 -5 47 -64 -37 42 -25 15 -10 76 -38 -38 -47 -19 -61 25 42 25 17 14 26 -65 -96 -71 40 36 -65 55 -55 8 55 29 21 14 29 -52 -20 79 51 -26 -39 9 6 23 43 -57 -61 54 -25 58 40 4 27 21 25 -10 28 18 46 48 23 18 -46 14 11 -19 11 -15 -51 23 58 41 -75 19 8 48 -40 -41 62 28 44 20 -7 17 86 -39 34 32 -3 2 -14 57 45 -48 36 -84 -58 -37 13 -36 -56 -47 56 -22 -2 -12 -42 10 39 -25 -16 -38 -54 5 28 -45 32 -15 -10 -6 19 -66 45 48 -24 -92 -15 -12 -17 -40 10 24 20 85 21 -24 -43 -70 15 54 33 -29 47 22 -1 -49 -23 -25 1 6 14 39 36 17 49 53 8 31 -25 1 -28 -1 5 45 22 45 -21 56 56 45 -68 -3 71 -34 -7 -34 82 83 83 28 -8 67 6 68 4 44 -28 82 -1 53 -21 27 -35 -12 -92 -86 13 26 -64 -52 52 -13 -4 31 -17 46 -11 86 65 -23 17 -65 35 30 -8 36 15 -30 28 13 -26 63 37 26 41 20 -8 20 67 8 -7 -48 17 29 -45 25 28 -32 -43 -19 1 -31 -42 77 -14 -63 -44 30 -51 -3 29 -31 21 -21 -42 32 29 -27 39 12 2 26 -45 -58 -45 -2 23 26 4 -2 -21 57 -56 -37 -44 6 -7 6 42 -43 -29 27 32 6 -23 30 35 -22 37 -16 -18 6 -31 26 35 5 50 73 43 32 16 -18 45 19 30 74 -63 60 47 109 58 -88 -79 -117 -82 -88 36 -12 -2 37 -51 -30 -64 -6 46 4 11 -3 6 33 23 -22 110 -74 -17 -15 34 32 26 3 -51 -1 -4 15 48 -96 15 -55 -80 -26 40 27 -64 26 -28 0 -58 33 75 38 90 10 29 -48 -36 -7 -82 83 -10 100 -5 15 0 86 86 12 82 71 22 -16 68 33 3 -38 -59 -26 -6 -11 -89 -56 -4 14 -35 -113 -123 -28 -30 -6 -43 30 -9 36 58 33 -30 75 23 43 68 -11 33 -51 -7 -8 -73 -19 42 -90 -14 -71 -12 5 -32 8 -2 -2 58 39 6 -24 -34 58 90 56 -31 -1 47 60 -14 77 -5 44 17 48 55 12 -8 2 -59 -10 -47 2 -45 17 2 6 -6 7 45 -3 59 33 -25 -40 33 39 52 2 -30 -20 -54 53 34 59 -20 67 -27 58 16 17 70 -27 1 17 -47 -85 -47 -46 -48 -38 -2 18 14 -11 -111 -53 47 -45 -39 19 37 16 -36 -49 -32 -40 -43 -4 -42 28 -51 -5 -20 51 0 -25 -59 -25 -49 40 37 -37 -3 -29 22 -11 -56 1 58 89 53 -59 -5 62 53 53 7 9 5 89 70 4 -11 -32 49 -98 58 30 18 15 49 52 48 13 27 -16 -61 -10 18 24 49 61 15 -26 -3 -63 -5 -38 -54 -3 -62 -45 -8 7 -72 -10 -20 -3 -49 -50 6 -69 -21 45 49 -25 11 -66 -31 -53 -21 -13 -57 -26 -40 -47 19 -35 -85 -39 26 -51 21 36 -50 -37 32 15 23 -35 -1 -11 -51 50 38 -55 -80 -54 23 -127 -71 -126 -124 -111 -107 47 -99 -98 26 36 26 -80 -108 -87 -57 47 54 10 -127 -124 113 -76 -32 -93 101 63 76 -114 83 -16 -34 -125 97 41 -122 -89 24 -106 -102 -13 -113 106 23 -99 81 67 -92 35 -54 -16 82 -118 74 -7 -96 46 -96 -15 -62 27 71 92 -1 -101 -91 122 -84 -108 26 -121 -20 90 12 -103 50 -24 32 -45 -57 64 90 -98 -47 95 -91 77 88 70 -113 -69 -56 42 -90 -121 41 69 -22 124 85 -56 16 -23 100 -82 70 -15 -60 -21 -84 -23 -77 -119 -112 -32 -1 21 -34 38 -113 82 -57 -104 -49 -20 -82 61 -34 -64 61 69 28 -76 57 7 -5 -108 99 -21 -128 -26 -29 34 22 -43 -1 -96 55 -72 12 -43 78 92 39 104 70 -26 76 26 23 67 -42 44 -98 -35 54 -78 -42 -62 -109 45 10 35 48 20 51 -115 125 -97 -104 41 3 -50 -64 -111 8 27 -70 -34 35 93 35 -125 -69 61 13 -62 6 25 -68 77 41 -90 15 87 -103 59 -51 -54 32 25 41 57 52 -107 -57 -40 26 -107 -33 -119 89 -89 118 26 -52 95 -43 -124 -76 -106 -16 91 81 -48 48 -116 -106 -33 24 -74 86 -58 -7 36 -58 -113 -14 22 -112 49 -63 37 -7 -80 -47 -92 117 -23 -64 71 92 22 -80 -86 -119 58 -48 -13 20 25 114 -77 124 119 -63 -121 -30 107 64 -79 61 -90 -19 -9 -84 63 -7 -58 -62 -91 -32 102 -50 -68 -57 38 31 -64 -28 -54 54 106 -65 15 -56 -30 -124 -95 53 81 68 -27 -84 0 14 65 -84 6 83 109 -1 127 26 -24 -61 18 -52 100 36 34 -98 -44 -22 -115 -51 27 -108 43 -112 -27 68 -55 2 -41 -90 -16 -105 -63 51 -121 -97 -26 -3 -11 116 20 45 -39 92 82 110 43 -67 -6 4 -33 83 37 -29 -8 22 -53 9 -104 -85 -102 25 -89 -116 4 110 90 -18 -100 126 -127 -68 -64 18 72 72 -28 21 8 20 95 44 -38 93 -125 87 84 -96 -94 -66 0 65 -75 34 5 -41 25 -84 -98 -116 -66 116 -105 -91 68 18 -86 110 25 -125 94 93 -20 -50 -70 -37 26 -75 -2 -51 73 93 83 73 -16 -126 -96 35 -86 88 11 -94 101 -82 -43 -109 -32 -51 116 -53 124 20 -1 -33 -119 -122 23 86 -25 0 -77 8 53 52 -92 -117 -105 -36 1 66 -19 103 -29 -28 -49 -108 102 -28 -85 -39 55 -66 -111 -80 -110 -21 -31 115 49 80 -19 126 93 -73 -62 38 0 42 16 78 -48 31 -61 -124 56 -36 -90 108 -125 -101 -99 -52 36 -88 39 -90 -89 -123 -121 -68 24 -51 -7 -84 67 85 28 106 -72 -58 62 -49 69 60 -111 -62 125 72 25 -88 -101 -43 -52 6 -70 72 33 102 -22 67 86 74 111 -9 -92 -67 117 -102 110 -123 82 -102 34 51 21 -87 115 -79 -98 30 -70 50 93 70 -80 85 122 -18 86 -112 -104 109 20 -110 54 74 43 -45 69 65 120 -96 -61 102 -115 -40 -17 77 -1 22 -37 98 -112 -94 -43 122 -25 65 -89 -46 95 -93 -81 -79 -95 100 35 -100 87 -41 9 6 -21 -46 82 59 -19 -5 24 -39 -3 47 -87 -87 112 69 -60 -46 -64 35 72 -48 -3 90 46 -11 -55 38 116 -102 5 -56 -34 -119 -86 80 -85 -29 109 -106 75 19 -39 -8 -62 -109 -64 -55 -12 -122 101 -77 -67 88 -14 -45 38 53 -51 -63 17 -112 105 42 -52 18 -9 101 12 94 125 -68 -86 -5 59 -56 -53 -90 66 117 -63 -41 -101 -2 34 83 100 55 18 2 49 -64 120 -101 13 54 -44 0 9 -88 45 -107 63 -87 -6 -43 66 -126 -124 -43 41 -12 26 -56 109 -55 39 -111 10 31 -31 35 123 -51 -17 104 47 94 120 72 125 122 -123 36 -7 -102 -84 6 -72 46 63 22 -11 -89 0 -63 -111 -9 -64 -43 60 113 -93 37 -29 -56 -85 54 24 52 16 35 -125 -109 43 -109 -52 92 -34 -6 0 -93 -128 -46 110 -10 -10 -73 100 123 -111 -10 13 6 106 -62 20 29 -121 -4 -88 -75 113 88 -108 -85 -49 -14 117 -7 -59 81 22 115 48 16 15 -88 8 76 -42 -115 -112 101 102 13 -60 39 -93 -77 -23 0 -73 20 -48 -6 9 -34 -16 63 -92 -66 -76 -45 -22 -128 47 -103 -79 76 -122 102 -62 43 -102 -74 -1 -21 18 -39 72 -84 -68 -70 -32 120 -32 -118 -49 111 -39 -14 -30 -104 -113 61 54 -74 57 -77 -78 -124 -96 -100 -91 -121 -104 69 -102 73 108 2 -15 0 -45 35 -68 64 -4 66 -102 -108 78 -7 -35 22 -16 94 38 10 -94 9 -49 109 34 -6 56 9 -21 15 -75 95 -55 -35 102 32 18 -93 76 -38 73 -70 61 0 -110 -82 -39 68 -49 41 73 -22 -77 28 17 -65 28 -43 9 25 95 -69 -7 33 -52 38 112 -58 16 -73 -80 -103 -90 -65 126 -16 -71 -72 78 11 124 119 -17 -66 25 125 18 -123 14 -14 5 65 -121 -101 95 -81 -29 124 98 39 3 -99 -100 -65 -118 100 32 -78 -107 63 -122 52 70 -23 17 55 64 -26 71 51 13 74 -22 53 28 -72 50 44 7 -115 79 1 95 -105 -106 19 -13 -126 40 20 98 18 -78 58 -7 -50 -5 -10 -70 79 46 -1 -108 -55 -83 -75 18 -106 -59 -102 9 -89 -97 28 -19 -42 25 6 49 27 93 7 46 -118 32 99 -114 -42 111 -57 117 -39 46 -26 53 125 6 -1 -125 19 -107 30 -104 79 -89 -56 46 -108 -76 -122 16 31 42 122 54 82 79 82 48 -40 4 -116 121 14 64 83 -97 96 -126 -122 2 10 3 -63 -27 -92 89 -60 108 -9 40 121 -6 12 -81 -28 102 29 -1 58 -14 -125 -26 107 -49 29 -24 67 -64 75 77 -25 -88 -111 121 -126 47 -58 53 -37 -121 32 64 -18 8 -21 55 -62 -66 114 -13 112 -18 5 37 -64 109 77 57 2 120 113 43 -24 -101 127 52 -74 -110 -68 -82 93 6 109 -91 -63 -22 67 13 -14 -6 17 -13 63 11 44 -49 26 -49 50 42 3 23 78 -3 -46 -8 -1 90 -20 2 60 15 42 -40 -20 -35 46 3 -13 26 -4 30 -21 9 16 0 22 14 20 -11 -46 -34 54 -50 44 -32 -5 -49 -25 -8 48 11 -51 23 -49 -27 23 18 37 -62 46 52 -27 39 23 21 -30 41 -48 12 60 54 -7 77 -7 2 7 31 70 16 -79 14 23 109 6 -96 28 46 -37 -31 -7 -14 127 -28 -8 -28 -12 16 53 -39 -5 -51 45 47 -31 -46 3 -2 73 73 2 92 -15 31 9 66 -21 -102 -36 -45 22 -48 10 62 20 38 -63 3 0 27 -57 -46 28 -6 -11 63 40 17 64 -35 18 94 -36 7 -21 -16 -42 -49 -26 -29 55 -19 -20 -41 -58 59 -99 -32 39 36 -20 -69 -23 12 22 -59 -92 -36 35 -4 6 -35 13 -40 10 4 24 23 -22 -66 20 11 -52 -67 -42 -20 9 -43 -51 45 -31 -26 20 -4 -9 40 -7 16 -2 -47 31 -12 96 1 -52 56 47 -2 -12 36 68 13 -44 29 -1 86 85 36 -21 -2 48 -46 -28 -31 33 1 13 -6 -22 25 5 39 -20 45 -10 40 -7 -41 -28 -32 4 -8 14 -40 -36 -16 10 10 -17 53 -33 36 26 -9 -84 -24 27 -22 27 -42 79 7 19 7 -33 -18 -112 -75 -12 51 47 17 -19 22 -48 5 3 -42 56 -20 37 -19 -29 27 -36 21 1 59 29 21 54 -11 25 -11 -3 -33 -44 -23 71 25 3 -38 38 85 -43 36 13 37 42 -62 -45 62 74 53 49 -33 -51 -36 -51 -48 37 -44 12 -1 2 31 -24 -31 21 24 -11 -22 -57 -63 2 -55 47 -45 42 36 -51 9 9 -28 -57 1 -31 6 -90 -55 -16 -26 -34 -65 -62 -10 -23 -120 -26 -23 -33 -55 -36 48 -41 -60 -49 19 -44 50 -17 38 29 -46 58 0 76 -14 -33 -58 49 -79 -22 22 -56 -18 11 33 -36 40 18 -47 9 -38 7 18 -99 -14 37 65 -68 -34 -46 45 80 -103 60 -47 -69 -45 -21 -19 9 1 -27 -83 -36 -94 -58 66 57 82 44 -14 93 -89 92 50 65 -10 17 -40 -78 29 -98 55 58 -99 -30 39 99 75 90 -26 -79 42 63 -83 48 -18 53 -44 -88 97 -87 21 68 -9 -95 59 -38 69 11 -3 -74 5 -74 10 -47 -70 -48 -36 -5 -52 75 -4 -52 30 5 4 107 82 -4 -88 13 -66 -102 30 63 77 -35 -21 -30 45 -82 -44 -16 48 40 77 52 -65 95 -52 69 79 8 -78 64 7 12 -21 -2 -52 -101 -92 -71 -71 89 -24 -34 38 50 -84 37 -98 -27 87 22 69 -106 29 -32 -70 55 50 -72 -121 -18 102 -55 -28 24 29 -36 45 15 69 -82 -34 9 -11 -54 -88 -34 -42 91 95 78 30 20 -24 127 64 